tree
version=v4
num_class=1
num_tree_per_iteration=1
label_index=0
max_feature_idx=113
objective=lambdarank
feature_names=Column_0 Column_1 Column_2 Column_3 Column_4 Column_5 Column_6 Column_7 Column_8 Column_9 Column_10 Column_11 Column_12 Column_13 Column_14 Column_15 Column_16 Column_17 Column_18 Column_19 Column_20 Column_21 Column_22 Column_23 Column_24 Column_25 Column_26 Column_27 Column_28 Column_29 Column_30 Column_31 Column_32 Column_33 Column_34 Column_35 Column_36 Column_37 Column_38 Column_39 Column_40 Column_41 Column_42 Column_43 Column_44 Column_45 Column_46 Column_47 Column_48 Column_49 Column_50 Column_51 Column_52 Column_53 Column_54 Column_55 Column_56 Column_57 Column_58 Column_59 Column_60 Column_61 Column_62 Column_63 Column_64 Column_65 Column_66 Column_67 Column_68 Column_69 Column_70 Column_71 Column_72 Column_73 Column_74 Column_75 Column_76 Column_77 Column_78 Column_79 Column_80 Column_81 Column_82 Column_83 Column_84 Column_85 Column_86 Column_87 Column_88 Column_89 Column_90 Column_91 Column_92 Column_93 Column_94 Column_95 Column_96 Column_97 Column_98 Column_99 Column_100 Column_101 Column_102 Column_103 Column_104 Column_105 Column_106 Column_107 Column_108 Column_109 Column_110 Column_111 Column_112 Column_113
feature_infos=[0:0.52141755819320679] [0:0.52191132307052612] [0:0.5321815013885498] [0:0.56450146436691284] [0:0.52162599563598633] [0:0.52337336540222168] [0:0.51682364940643311] [0:0.55142384767532349] [0:0.49467530846595764] [0:0.50385004281997681] [0:0.49537044763565063] [0:0.50167006254196167] [0:0.50584369897842407] [0:0.4978891909122467] [0:0.5530121922492981] [0.0014952026540413499:0.47538110613822937] [0:13.208901405334473] [-6.3538818359375:4.4931883811950684] [-4.8668742179870605:4.4763164520263672] [-2.5590043067932129:5.1913347244262695] [-3.6299970149993896:3.530465841293335] [-3.3688549995422363:3.0299069881439209] [-4.5875759124755859:3.6711962223052979] [-2.1886675357818604:2.8734838962554932] [-1.0604522228240967:3.5005769729614258] [-1.1238387823104858:2.8311624526977539] [-1.8140568733215332:1.0778777599334717] [-0.66444730758666992:2.3322546482086182] [-0.88005244731903076:1.7904421091079712] [-0.14256104826927185:0.88369005918502808] [-0.09467577189207077:1.4208533763885498] [-0.567119300365448:0.69808393716812134] [-0.18477852642536163:1.0116000175476074] [-0.28937047719955444:0.44024595618247986] [-0.47116884589195251:0.11959081888198853] [-0.59368902444839478:0.75569069385528564] [-0.09444805234670639:0.77645319700241089] [-0.24442034959793091:1.3688219785690308] [-0.20917877554893494:0.39157989621162415] [-0.57172137498855591:0.80332106351852417] [-0.32845276594161987:0.1478988379240036] [-0.35404002666473389:0.0034273853525519371] [-0.67258405685424805:0.76010411977767944] [-0.027002274990081787:0.00069287861697375774] [-0.0053207334131002426:0.0023047404829412699] [-0.00016962108202278614:0.00061959860613569617] [-0.00054370012367144227:0.00048560896539129317] [-7.9941566663541976e-16:1.427249324983414e-16] [-6.6278046427647335e-16:5.4305039841838747e-16] [0:1] [0:5] [0:8] [0:5] [0:2] none [0:0.60379773378372192] [0:0.61406749486923218] [0:0.6719130277633667] [0:0.62623608112335205] [0:0.6122862696647644] [0:0.58152884244918823] [0:0.65754812955856323] [0:0.65031760931015015] [0:0.60063517093658447] [0:0.61693727970123291] [0:0.57131940126419067] [0:0.63401514291763306] [0:0.59308421611785889] [0:0.56712895631790161] [0:0.62422424554824829] [0:0.65006160736083984] [0:2.5161004066467285] [-1.1110711097717285:1.1910912990570068] [-0.9349747896194458:1.1664797067642212] [-0.78938740491867065:1.7083791494369507] [-1.5979573726654053:0.71940815448760986] [-1.1939593553543091:1.0694441795349121] [-0.9473642110824585:1.1743205785751343] [-0.6636391282081604:1.0896022319793701] [-0.2734692394733429:1.1602339744567871] [-0.2806546688079834:1.4213161468505859] [-0.63921499252319336:0.89148426055908203] [-0.32750537991523743:1.2735087871551514] [-0.41897463798522949:0.95793551206588745] [-0.082200221717357635:2.5485794544219971] [-0.020885825157165527:1.5635993480682373] [-1.2469267845153809:0.75093674659729004] [-0.60874050855636597:1.2961112260818481] [-0.73089832067489624:1.3406987190246582] [-0.99949347972869873:0.83812975883483887] [-0.66197878122329712:1.0549575090408325] [-0.79514670372009277:1.0153963565826416] [-0.23870892822742462:1.3733160495758057] [-0.69828784465789795:0.84059876203536987] [-0.57084649801254272:0.9565696120262146] [-0.57403934001922607:1.0813792943954468] [-0.48056155443191528:1.0526362657546997] [-0.68460893630981445:0.76056849956512451] [-0.14650583267211914:0.99083244800567627] [-0.10690942406654358:0.45417401194572449] [-0.70655202865600586:0.00036151678068563342] [-0.00040262870606966317:0.53987687826156616] [-7.3623346739647177e-16:1.3321236868887138e-16] [-3.4662089567544978e-15:7.4999034125106567e-16] [0:1] [0:1] [0:1] [0:1] [0:1.0378143787384033] [0:1] [0:1] [0:1] [0:1] [0:1]
tree_sizes=3532 3522 3517 3514 3522 3523 3513 3519 3517 3539 3519 3510 3511 3516 3523 3529 3518 3522 3525 3501 3530 3507 3517 3530 3527 3537 3525 3525 3519 3526 3524 3510 3529 3512 3488 3510 3517 3509 3492 3516 3509 3523 3509 3523 3496 3510 3514 3505 3519 3531 3544 3519 3551 3520 3512 3517 3508 3513 3516 3516 3555 3484 3535 3511 3519 3518 3561 3521 3526 3515 3520 3533 3531 3513 3481 3506 3533 3482 3532 3529 3517 3521 3517 3527 3546 3521 3515 3525 3513 3525 3507 3533 3492 3503 3495 3498 3505 3536 3482 3506

Tree=0
num_leaves=31
num_cat=0
split_feature=108 108 20 80 80 80 42 37 18 47 71 85 19 37 30 17 80 17 35 19 17 39 47 19 16 72 17 18 42 101
split_gain=659.781 106.468 132.135 81.3211 46.2086 45.2513 39.4997 37.9872 37.7198 34.8166 30.2947 26.2026 41.147 22.7439 22.0157 21.0345 22.353 20.4211 20.2723 18.5716 17.4653 17.0947 15.7695 15.4095 15.4081 15.2419 34.0938 21.0977 14.9445 14.6567
threshold=0.46008226275444036 0.30600291490554815 1.0000000180025095e-35 0.53476166725158703 0.5387072265148164 0.50387182831764232 -2.0702781512227372e-05 -0.00071451757685281325 1.3759427666664126 -3.0120909826880622e-16 0.56628343462944042 -0.0071331982035189858 1.5466446876525881 1.0000000180025095e-35 -0.0025241975672543045 -0.62743952870368946 0.51029106974601757 2.0506100654602055 -0.0011786897084675727 2.3198518753051762 -0.59183311462402333 0.00024062176817096773 -3.4668579428107717e-16 -1.7923901677131651 1.0000000180025095e-35 -0.49784824252128596 -0.11613250896334647 0.29427297413349157 -0.00058277332573197771 -6.829160611232509e-06
decision_type=2 2 2 2 2 2 2 2 2 2 2 2 2 2 2 2 2 2 2 2 2 2 2 2 2 2 2 2 2 2
left_child=1 2 7 6 24 8 11 9 10 -1 -4 12 20 17 19 -11 18 28 -17 -5 -2 -8 -13 -10 -3 26 -23 29 -12 -27
right_child=3 4 5 14 -6 -7 21 -9 23 15 13 22 -14 -15 -16 16 -18 -19 -20 -21 -22 25 -24 -25 -26 27 -28 -29 -30 -31
leaf_value=-0.076603181452457092 0.066546216698784522 -0.033113369396806251 -0.06352813776798448 -0.061028257444349532 -0.061905186893355904 -0.072817761377276108 0.081710696201777872 -0.095399916743265881 0.049365540001200768 -0.075970081697561836 0.063136233477405365 0.078592278790588277 -0.074949733762285017 -0.047807024400007274 0.064461855793875575 0.06466914758169777 -0.083552274810086438 -0.053243371530840092 -0.016361685912491056 0.065609350080927747 0.0061598564097999596 0.087916476907510033 0.035256651319178316 -0.081102098623957147 0.0034755323593175821 -0.0082700362456282674 -0.017724329721724337 0.074055262474594971 0.018270375666209055 0.054979504111247149
leaf_weight=75.177046772791073 19.746714618057013 32.540299405343831 13.288055721204726 23.56470875674859 34.714674829505384 27.037730955984443 117.77141400147229 94.976057513151318 2.5850067948922542 15.162336355075238 25.710260299034417 35.551789781544358 11.494751115329562 12.322822807356713 5.4840447651222339 11.287742062588217 7.9281113287433973 7.8516243204940102 24.4116468585562 3.3006099527701727 30.419920634943992 53.506468051346019 51.261474694940262 18.18008951516822 248.5508851564955 24.623848808463663 8.9092070756014419 24.973478305386379 66.743284713709727 14.584162128856404
leaf_count=2842 376 1485 525 708 1100 801 2254 3706 72 582 919 530 457 453 107 422 222 305 909 52 901 832 1221 657 8457 762 310 415 2296 322
internal_value=-3.04127e-12 -0.0292153 -0.0462611 0.0493665 -0.00748147 -0.0133798 0.0556413 -0.071211 -0.00242355 -0.0540622 0.00787306 0.0353012 0.010378 0.0162971 -0.0268336 -0.0252381 -0.00760664 0.0241725 0.00925935 -0.0454699 0.0299293 0.0679997 0.0530035 -0.0648604 -0.000760153 0.0552445 0.0728373 0.0381357 0.0307471 0.0152568
internal_weight=1143.66 718.468 402.662 425.193 315.806 173.719 392.843 228.943 146.681 133.967 125.916 148.475 61.6614 112.628 32.3494 58.7898 43.6275 100.305 35.6994 26.8653 50.1666 244.369 86.8133 20.7651 281.091 126.597 62.4157 64.1815 92.4535 39.208
internal_count=35000 25753 14711 9247 11042 6028 8380 8683 5227 4977 4498 3485 1734 3973 867 2135 1553 3520 1331 760 1277 4895 1751 729 9942 2641 1142 1499 3215 1084
is_linear=0
shrinkage=0.05


Tree=1
num_leaves=31
num_cat=0
split_feature=108 80 20 80 108 16 16 71 94 18 108 16 18 73 37 17 4 45 13 19 17 108 72 47 75 108 85 94 84 39
split_gain=892.486 159.157 145.558 142.868 116.996 224.698 165.642 99.4027 80.5484 63.9134 64.6838 57.5379 48.4108 51.4715 40.0459 40.469 61.2316 46.0846 39.649 37.794 37.543 46.5318 60.9473 40.7041 49.0563 38.1013 46.0218 35.887 36.8256 40.2243
threshold=0.46008226275444036 0.35047762095928198 1.0000000180025095e-35 0.50387182831764232 0.6156558394432069 1.0000000180025095e-35 1.0000000180025095e-35 0.56628343462944042 0.001013555331155658 0.74821630120277416 0.30734302103519445 1.0000000180025095e-35 1.0492980480194094 -0.14487957954406736 -0.0015859758714213965 0.34956903755664831 0.36543077230453497 9.1880920081166564e-05 0.32175359129905706 1.8628505468368532 -0.48132555186748499 0.30600291490554815 -0.49784824252128596 -3.366934789512162e-16 -0.056528348475694649 0.30734302103519445 -0.0053815303836017838 -0.00057078141253441561 0.006818437948822976 0.00083663727855309855
decision_type=2 2 2 2 2 2 2 2 2 2 2 2 2 2 2 2 2 2 2 2 2 2 2 2 2 2 2 2 2 2
left_child=2 4 11 7 5 -2 -6 -4 12 10 14 -1 27 -14 15 16 -9 18 -17 -10 21 -13 -23 25 -25 -22 -27 -7 29 -29
right_child=1 -3 3 -5 6 8 -8 9 19 -11 -12 20 13 -15 -16 17 -18 -19 -20 -21 23 22 -24 24 -26 26 -28 28 -30 -31
leaf_value=-0.08068714270644263 -0.038023131749698236 -0.04993461686105162 -0.068851032597937664 -0.084606723735222211 0.097746389577080081 0.00069569437984890131 0.032351784588337144 0.07849316486951613 0.0021024135608227884 -0.033032086411859014 -0.018856592826161939 -0.07931999296372963 -0.009062183984487918 0.069729160997788045 -0.011300704384921504 0.040823999528649124 -0.058757412998735908 -0.073296561444759642 -0.041159894290562868 -0.088166409767130596 -0.082323938224701285 0.0082909124206252596 -0.059154849730546605 -0.043100120431060811 0.0081098920932673874 -0.0681828585150248 0.0063915740187489847 0.014276204933583104 -0.03312386566606261 0.05178687543309804
leaf_weight=101.46233906969428 138.64081819541752 63.275138836936094 52.653380017611198 60.806538949720562 136.28169609233737 88.549911723821424 334.53333115327405 73.8947659637779 89.346583095029928 95.382287258747965 113.46852239454165 107.39207453420386 23.780519302934408 161.45876941084862 56.090445504523814 97.242528814822435 9.130242455750702 12.341622833162544 17.383711301721632 13.324751110747455 53.720603126101196 50.836233708076179 98.19479903113097 81.684780251292977 109.39545182714937 38.68352360278368 44.472521221265197 103.85416167415679 18.109227526001632 229.19165669364156
leaf_count=3641 863 930 1171 1370 417 656 2145 887 679 1888 2439 3138 146 846 957 1147 116 190 247 174 1635 772 1633 1365 1902 620 635 740 158 1493
internal_value=7.15957e-11 0.0275518 -0.0302786 -0.0120337 0.0312187 0.0203149 0.0512808 -0.00366939 0.0314307 0.00355695 0.0127519 -0.0459311 0.0381736 0.0596141 0.026231 0.0362559 0.0633997 0.0185064 0.0283907 -0.00961273 -0.0398966 -0.054229 -0.0361483 -0.0286905 -0.0137818 -0.0495029 -0.0282999 0.0291412 0.0363142 0.0400899
internal_weight=2674.58 1400.35 1274.24 588.394 1337.07 866.256 470.815 527.588 727.616 474.934 379.552 685.842 624.944 185.239 266.083 209.993 83.025 126.968 114.626 102.671 584.38 256.423 149.031 327.957 191.08 136.877 83.156 439.705 351.155 333.046
internal_count=35000 9247 25753 10412 8317 5755 2562 9042 4892 7871 5983 15341 4039 992 3544 2587 1003 1584 1394 853 11700 5543 2405 6157 3267 2890 1255 3047 2391 2233
is_linear=0
shrinkage=0.05


Tree=2
num_leaves=31
num_cat=0
split_feature=108 20 80 20 75 37 75 94 47 18 108 37 17 108 16 71 36 36 1 80 18 13 32 81 17 19 77 17 37 85
split_gain=884.402 195.009 124.933 100.619 82.6488 72.4074 58.0295 52.2316 50.3535 48.9221 50.8818 45.3852 50.3402 43.1009 42.943 39.3726 38.3172 42.55 35.3279 33.9943 32.832 31.1311 27.9949 54.2795 103.797 68.6002 46.8076 73.6656 40.9576 36.79
threshold=0.46008226275444036 1.0000000180025095e-35 0.50387182831764232 0.19808574765920642 -0.33917194604873652 -0.00071451757685281325 -0.33839678764343256 0.0011735283187590542 -1.0667765871781152e-16 0.74821630120277416 0.30734302103519445 -0.0015859758714213965 2.0506100654602055 0.30734302103519445 1.0000000180025095e-35 0.50501534342765819 -0.0012405417510308323 -0.0020411993609741326 0.20079516619443896 0.35047762095928198 0.74821630120277416 0.32768154144287115 -0.0015887084300629792 0.00091034657089039694 -0.46744893491268152 0.8197150230407716 -0.36117213964462275 -0.042068688198924058 -0.0050865993835031978 -0.010046171024441717
decision_type=2 2 2 2 2 2 2 2 2 2 2 2 2 2 2 2 2 2 2 2 2 2 2 2 2 2 2 2 2 2
left_child=1 5 4 7 -3 8 15 19 -1 10 11 12 16 -7 -9 -5 17 21 -19 22 -8 -6 23 24 -2 -25 27 -24 -26 -27
right_child=3 2 -4 6 9 13 20 14 -10 -11 -12 -13 -14 -15 -16 -17 -18 18 -20 -21 -22 -23 26 25 28 29 -28 -29 -30 -31
leaf_value=-0.039527272632554775 0.055892919129989033 -0.043245253118848109 -0.08261920964022712 -0.063428461837897618 0.086640337593516192 -0.086807625796423024 0.0095748504935151118 0.061791985116244001 0.029661243050749381 -0.025267922527765177 -0.015663999793006603 -0.013106332393524165 -0.048866211706834001 -0.047197182455398771 -0.038384398757112463 -0.00039197407861293985 0.064189366403257217 -0.073429590620195134 0.03561911966151645 -0.014471016896552103 0.049664513015102274 -0.06002869885544794 -0.055327498952556266 0.0039692868679498906 0.011911316096387715 -0.050099843099974707 0.058830358486100076 0.059956396484018126 -0.056555971524930727 0.081433749944960637
leaf_weight=361.78035167674534 75.949100036174059 91.505994203034788 50.893996723811142 38.138843530789018 21.15919346455485 144.51748369447887 173.64359570376109 15.11776018515229 28.358008014271036 81.274930388201028 82.671144671388902 48.923151921946555 14.434478828217832 130.86475533246994 36.592307290993631 70.675515115843154 119.93284236756153 17.114848993718628 13.120966555085031 25.138740876689553 72.349902413785458 4.3641024064272633 24.399668097496033 48.346851728856564 41.667704220861197 5.5892142988741389 392.52314250473864 32.069927064701915 45.908934309147298 108.81085882894695
leaf_count=8251 451 1743 1370 372 238 3736 1523 121 541 1713 2277 892 291 2813 535 650 1432 243 133 445 537 80 215 290 333 73 2631 207 473 391
internal_value=-8.42118e-11 -0.03019 -0.00802517 0.03029 -0.000347963 -0.0483542 0.00791708 0.0396057 -0.0344982 0.00939249 0.0181486 0.0298421 0.0408935 -0.0679843 -0.00909721 -0.0224859 0.048268 0.0140226 -0.0261074 0.0427521 0.0213657 0.0615621 0.0446077 0.0334618 0.0131166 0.0539043 0.0527071 0.0101439 -0.0239802 0.0750074
internal_weight=2417.84 1210.92 545.396 1206.92 494.502 665.521 354.808 852.114 390.138 402.996 321.721 239.05 190.126 275.382 51.7101 108.814 175.692 55.7591 30.2358 800.404 245.993 25.5233 775.265 326.273 163.526 162.747 448.993 56.4696 87.5766 114.4
internal_count=35000 25753 10412 9247 9042 15341 3082 6165 8792 7299 5586 3309 2417 6549 656 1022 2126 694 376 5509 2060 318 5064 2011 1257 754 3053 422 806 464
is_linear=0
shrinkage=0.05


Tree=3
num_leaves=31
num_cat=0
split_feature=108 37 80 80 75 47 20 80 108 20 108 12 11 19 25 108 47 16 94 18 80 17 20 108 12 42 16 0 103 18
split_gain=733.209 124.266 139.914 119.929 87.0285 73.0928 42.0614 36.0424 34.9374 44.824 34.832 35.2161 31.7119 30.2717 29.6347 37.4408 67.7756 65.3726 33.9851 34.2993 40.2023 32.0892 25.5042 36.9948 24.9374 23.8829 38.0942 26.6329 22.3331 21.7734
threshold=0.46008226275444036 -0.00071451757685281325 0.35047762095928198 0.43732608854770666 -0.074092008173465715 -2.843852901657719e-16 1.1939685940742495 -0.063414338976144777 0.30734302103519445 0.7252827286720277 0.31486289203166967 0.013527989387512209 0.03512136451900006 2.3198518753051762 -0.10022092983126639 0.60732373595237743 -7.4636509979382125e-17 1.0000000180025095e-35 0.001013555331155658 1.0492980480194094 0.02205549739301205 -0.90210774540901173 -0.429767295718193 0.30734302103519445 0.36199925839900976 -0.00056780208251439024 3.6577118635177617 0.291884794831276 -4.5941626110446177e-17 1.6356920599937441
decision_type=2 2 2 2 2 2 2 2 2 2 2 2 2 2 2 2 2 2 2 2 2 2 2 2 2 2 2 2 2 2
left_child=1 2 4 6 7 22 14 -1 9 -3 11 -7 -13 -5 18 16 -16 -17 19 20 -2 28 23 -6 -8 -14 -27 -28 -20 -24
right_child=3 8 -4 13 5 10 24 -9 -10 -11 -12 12 25 -15 15 17 -18 -19 21 -21 -22 -23 29 -25 -26 26 27 -29 -30 -31
leaf_value=-0.017754141383122164 0.02999534206738029 -0.07756718260557155 -0.074631614180022926 -0.062124569635721043 -0.077515011616943699 -0.087235216914902186 0.0049103600246947756 -0.056812750723797524 -0.036800434505766415 0.019846726764323974 -0.010432943717212803 -0.044335850351574294 0.060749444358385564 0.044911836283834113 0.046122477492782019 0.084162847667658053 -0.0070232773383094764 0.029817969309077465 -0.063503109981152092 0.058102094201037881 -0.022727180691093647 -0.053199188116404617 0.0055608946021298809 -0.01087389317905809 -0.089700139914506524 -0.039262482295659616 0.048684501649488135 -0.0034290495993743683 0.048899163098048766 -0.04392471311714688
leaf_weight=130.47949927800801 279.20419578067958 154.81583864043932 95.841808363911696 43.165666158893146 41.017238745465875 6.5952182598412028 52.830758050549775 107.91142558807041 147.99761272314936 12.783995463978497 88.419865884585306 13.452854136005042 62.276063837693073 7.7991041429340831 226.31625808868557 119.29506202414632 81.626381848007441 103.21635816246271 5.5730138588696745 89.970513606444001 41.536619359627366 24.812791186384857 85.100971744395792 42.304807655513287 8.0224801590666157 20.595466872677207 88.442880803369917 33.918759332969785 21.343798467889428 30.08728482760489
leaf_count=2970 1996 4273 2521 833 1138 112 533 2659 3364 247 2139 212 814 61 1608 445 1052 931 85 595 387 407 1591 754 100 338 1391 560 214 670
internal_value=1.37665e-10 -0.0277265 -0.0177426 0.0291654 -0.0104786 0.00113631 0.0327884 -0.0354346 -0.0545039 -0.0701368 0.0161614 0.0265993 0.0300323 -0.0457449 0.0352615 0.0433268 0.0320351 0.0589539 0.0260099 0.0308204 0.0231677 -0.0121832 -0.0226074 -0.0436796 -0.00756245 0.0349071 0.0236495 0.0342386 0.0256267 -0.00736479
internal_weight=2266.75 1162.04 846.444 1104.71 750.602 512.211 1053.75 238.391 315.597 167.6 313.701 225.281 218.686 50.9648 992.895 530.454 307.943 222.511 462.441 410.711 320.741 51.7296 198.51 83.322 60.8532 205.233 142.957 122.362 26.9168 115.188
internal_count=35000 25753 17869 9247 15348 9719 8353 5629 7884 4520 5566 3427 3315 894 7720 4036 2660 1376 3684 2978 2383 706 4153 1892 633 3103 2289 1951 299 2261
is_linear=0
shrinkage=0.05


Tree=4
num_leaves=31
num_cat=0
split_feature=108 75 20 80 37 20 80 47 32 72 17 19 72 18 18 74 108 71 89 17 18 108 17 80 17 37 17 45 13 4
split_gain=621.885 140.659 128.901 85.5246 66.3973 48.3993 43.6921 38.0003 30.8246 49.0003 111.054 59.2386 44.3731 99.0191 39.8327 31.7953 30.1265 29.879 29.876 29.6915 29.0349 40.651 28.3969 27.8362 26.3998 24.9891 30.9138 28.281 28.1557 24.0792
threshold=0.46008226275444036 -0.074092008173465715 1.0000000180025095e-35 0.43732608854770666 -0.00071451757685281325 0.38778804242610937 0.35047762095928198 -3.0120909826880622e-16 -0.0017490896279923616 -0.29709976911544794 -0.46744893491268152 1.5466446876525881 -0.45253288745880121 -1.0000000180025095e-35 -0.34427687525749201 0.0074413251131773004 0.30600291490554815 0.82851266860961925 0.00037287501618266111 -0.06969274207949637 0.74821630120277416 0.30734302103519445 -0.62743952870368946 -0.063414338976144777 0.061605885624885566 -0.0015859758714213965 0.34956903755664831 9.1880920081166564e-05 0.32175359129905706 0.36543077230453497
decision_type=2 2 2 2 2 2 2 2 2 2 2 2 2 2 2 2 2 2 2 2 2 2 2 2 2 2 2 2 2 2
left_child=1 23 4 5 7 8 20 16 9 10 -2 14 24 19 -11 -13 -3 18 -7 -14 21 25 -9 -1 -10 26 29 28 -28 -4
right_child=3 2 6 -5 -6 17 -8 22 12 11 -12 15 13 -15 -16 -17 -18 -19 -20 -21 -22 -23 -24 -25 -26 -27 27 -29 -30 -31
leaf_value=-0.035825477160329987 0.044450164267001803 -0.063964581118272329 0.074380879426234198 -0.040258864176727222 -0.060581175936615134 -0.043966397037865472 -0.071084584378221308 -0.043779513539538337 0.064079480838725861 -0.028833032437734066 -0.049145697850723237 -0.034590605551042264 -0.047871212990544601 0.046812300680343366 0.036433054839596302 0.076929417160854122 -0.012351454341804209 0.022050698393841946 0.021152864710167335 0.033535373746992767 -0.017829251457844298 -0.014539376115027175 0.016534725340454946 -0.063362866311362551 0.0036014733273296178 -0.0050115146399984456 0.040586284480448188 -0.069232028907935381 -0.040686379952327656 -0.033631430181303233
leaf_weight=162.22499612323008 66.112906515598297 55.665204744320363 61.097154914401472 45.230144780129194 144.96374171320349 42.391468985937536 16.606499545858242 25.04903226159513 218.4697748478502 36.218032977543771 60.87445658701472 6.9090958684682837 44.484023237600923 184.75699341669679 65.941529029048979 85.30052201077342 57.454160215333104 153.08051726024132 30.133924923837185 14.970378337893633 65.592645749216899 66.861292586312629 88.33393419533968 211.30776153726038 19.669130745343864 39.943426577374339 75.51895975228399 7.97226483747363 12.407413527369497 5.6357815824449053
leaf_count=4299 448 1632 693 894 3880 439 585 595 1421 279 872 83 566 1403 420 388 1190 1457 239 114 1345 1811 1625 6101 224 700 866 138 203 90
internal_value=-1.67473e-10 -0.0264886 -0.0136183 0.0270331 -0.0341576 0.0299901 0.00807931 -0.0172462 0.0357344 0.0237379 -0.000417271 0.0395192 0.0437269 0.0287515 0.0132947 0.0685734 -0.0377499 0.00952613 -0.0169097 -0.0273734 0.0120033 0.0192658 0.00320986 -0.0514034 0.0590843 0.0304234 0.0391265 0.0209417 0.0291178 0.0652589
internal_weight=2171.18 1096.63 723.102 1074.54 371.466 1029.31 351.635 226.502 803.707 321.357 126.987 194.369 482.35 244.211 102.16 92.2096 113.119 225.606 72.5254 59.4544 335.029 269.436 113.383 373.533 238.139 202.575 162.632 95.8986 87.9264 66.7329
internal_count=35000 25753 15353 9247 8922 8353 6431 5042 6218 2490 1320 1170 3728 2083 699 471 2822 2135 678 680 5846 4501 2220 10400 1645 2690 1990 1207 1069 783
is_linear=0
shrinkage=0.05


Tree=5
num_leaves=31
num_cat=0
split_feature=108 75 37 80 18 80 20 20 108 108 108 17 18 94 47 108 46 19 16 5 4 42 22 13 73 97 20 73 42 41
split_gain=555.877 120.447 97.6254 72.2161 58.1789 38.5777 35.64 35.3944 34.7632 31.0482 29.247 27.5854 26.0813 25.6421 31.9647 24.6733 23.4758 23.3059 23.0761 22.846 22.023 24.2924 21.0178 19.1339 18.8997 18.2262 18.1762 17.9382 17.6913 17.4992
threshold=0.46008226275444036 -0.074092008173465715 -3.0044300729059611e-05 0.53476166725158703 1.1791067719459536 0.5387072265148164 -0.37740524113178248 0.38778804242610937 0.31120893359184271 0.30930399894714361 0.30734302103519445 2.0506100654602055 1.1507357954978945 0.0011735283187590542 -1.0000000180025095e-35 0.30734302103519445 3.7903246266068897e-05 2.3198518753051762 1.0000000180025095e-35 0.45775443315505987 0.065525226294994368 0.00040316236845683312 0.55883634090423595 0.11119370162487031 1.0000000180025095e-35 -0.00020808392582694066 0.84404015541076671 1.0000000180025095e-35 -0.0013082691002637146 -0.00051329401321709145
decision_type=2 2 2 2 2 2 2 2 2 2 2 2 2 2 2 2 2 2 2 2 2 2 2 2 2 2 2 2 2 2
left_child=1 10 4 7 5 6 -3 13 -6 11 -1 16 20 -2 -15 26 19 18 -5 29 23 25 -13 -9 -14 -22 -4 -10 -24 -8
right_child=3 2 15 17 8 -7 9 12 27 -11 -12 22 24 14 -16 -17 -18 -19 -20 -21 21 -23 28 -25 -26 -27 -28 -29 -30 -31
leaf_value=-0.062831360989269766 0.036883290096360308 -0.016541439816517328 -0.072355843439641312 0.052459878521814177 -0.064715039873220387 -0.067397833557146625 -0.047726199837237519 0.06008140336305802 -0.039711502657082731 -0.0094015530174198555 -0.034033337485930189 -0.069440569538022329 -0.0099513950747884151 -0.036386384420498318 0.052689768600747346 -0.026110910322439496 -0.038642322605789155 0.043310004286697831 -0.068623640999367227 -0.091019396430696828 0.032046916655945487 0.062263239115310599 -0.090586571874200286 -0.082010886616858056 0.064176958202006251 -0.010339489089873597 0.018506341500832281 0.022802812849982597 0.089792475574674152 0.038982607055538035
leaf_weight=182.82752946508117 709.37450355198234 119.73758235294372 80.597841570153832 4.5023898389190427 55.2241849321872 18.243734990130179 5.9990723207592955 2.9292063731700173 21.239919085754082 91.157928939443082 170.27849071106175 12.821762426756324 11.566675515845416 26.798330689663999 16.135322090238333 69.295558587182313 11.721211316063998 7.5528567526489487 31.217963020433672 3.5822966475971034 34.213862043339759 18.183899852447212 1.8847573753446338 12.392756999470292 33.508722307160497 98.028658413444646 5.9073880817741147 24.960506697185338 4.8761981995776287 193.62182845955249
leaf_count=5786 5639 2466 2330 75 1473 556 103 31 468 2336 4614 256 134 481 117 1670 205 60 732 52 287 171 32 158 251 1111 94 518 81 2713
internal_value=6.48125e-11 -0.0250194 -0.0133003 0.0266992 -0.00363856 0.00386521 0.00678416 0.0295383 -0.0379408 0.0153603 -0.0489441 0.0249858 0.0114318 0.0346123 -0.00290979 -0.0483423 0.0301621 -0.0364887 -0.0533616 0.0341309 0.00226078 0.00807751 -0.0318259 -0.0548461 0.0451551 0.000626747 -0.0661509 -0.00593716 0.0395081 0.0363768
internal_weight=2080.38 1073.98 720.872 1006.41 565.071 463.646 445.403 963.132 101.425 325.665 353.106 234.507 210.824 752.308 42.9337 155.801 214.924 43.2732 35.7204 203.203 165.748 150.426 19.5827 15.322 45.0754 132.243 86.5052 46.2004 6.76096 199.621
internal_count=35000 25753 15353 9247 11259 8800 8244 8380 2459 5778 10400 3442 2143 6237 598 4094 3073 867 807 2868 1758 1569 369 189 385 1398 2424 986 113 2816
is_linear=0
shrinkage=0.05


Tree=6
num_leaves=31
num_cat=0
split_feature=108 75 37 80 18 80 47 108 20 13 48 24 108 71 12 72 17 18 73 47 90 17 103 108 108 17 77 72 85 3
split_gain=476.171 102.582 87.8778 62.2861 58.8378 32.0321 31.7982 32.2902 29.4618 26.7369 34.0673 26.3193 23.9401 22.3014 21.9131 21.909 98.0464 22.5578 32.1265 104.182 30.7815 65.0815 26.2705 24.2872 21.7834 20.0694 44.3985 28.1664 22.4874 19.8539
threshold=0.46008226275444036 -0.074092008173465715 -1.0000000180025095e-35 0.35047762095928198 1.1791067719459536 0.5387072265148164 -4.1596714690095836e-16 0.30734302103519445 1.1939685940742495 0.36148503422737127 -2.3557236960228268e-16 -0.62173765897750843 0.30734302103519445 0.66376009583473217 0.36199925839900976 -0.86244371533393849 0.061605885624885566 -0.11956515535712241 -0.50841817259788502 -1.7628014932126538e-16 -6.4798477978911237e-05 -0.054761897772550576 -1.7406490670128917e-17 0.6111552119255067 0.30930399894714361 -0.5494471788406371 -0.15815955400466916 -0.063825346529483781 -0.005857751937583088 0.0069786482490599164
decision_type=2 2 2 2 2 2 2 2 2 2 2 2 2 2 2 2 2 2 2 2 2 2 2 2 2 2 2 2 2 2
left_child=1 12 4 8 5 6 -3 9 15 11 -11 -8 -1 -13 -10 16 -2 20 19 -19 25 22 -22 -21 -6 26 -17 -27 -28 -15
right_child=3 2 -4 -5 24 -7 7 -9 14 10 -12 13 -14 29 -16 17 -18 18 -20 23 21 -23 -24 -25 -26 27 28 -29 -30 -31
leaf_value=-0.060514465196040569 0.059752583025827491 -0.034147992070703466 -0.047622635518605773 -0.033757053388863048 -0.061952777448990359 -0.064482876875797124 -0.055592295302217126 -0.011214766646040597 0.0038224647482842872 0.092259514463645928 -0.044813362470252541 -0.094306119401216179 -0.033473354006268274 -0.071710179062554849 -0.08880368850857967 -0.074120296322279733 -0.036381293381170056 -0.05731983951637766 0.038764367998772933 0.0017757105090672931 -0.080407409273456465 0.028514432693068966 -0.01244645965882899 0.070971562670709629 -0.013451216994658633 -0.029860727200886162 0.06866432112369393 0.041870864558675516 -0.026742565815595355 0.033435772865390921
leaf_weight=165.583550030482 162.9503155737184 43.884942702483386 145.83200037572533 43.918281135498546 51.177691657561809 16.643904014781583 9.4959660386666638 117.06464597122977 44.664770406670868 5.4315811749547711 27.395836894167587 3.589373758994042 161.85705925087677 4.5822224803268901 7.4503241050988427 6.8751310203224412 31.679015280213207 38.64670202427078 358.04065642599016 18.722365160472691 26.320067969150841 68.60477792751044 30.929673788137734 39.299817615188658 42.271874949103221 26.421371039934456 61.888075023889542 28.389999926555902 6.8608639892190686 221.92385579016991
leaf_count=5786 957 1013 4023 930 1463 559 184 2982 530 73 504 45 4614 70 100 97 446 505 2811 262 401 563 374 160 996 377 454 191 89 3441
internal_value=-1.33274e-10 -0.0241049 -0.0131587 0.0244676 -0.00391062 0.00358642 0.00620069 0.010747 0.0271376 0.0201844 -0.0221335 0.0259826 -0.0471478 0.0293491 -0.00941928 0.0292412 0.0441053 0.0251724 0.0318586 0.00628115 0.0133096 -0.00433093 -0.0436909 0.0486437 -0.0400131 0.0303306 0.0470279 0.00729324 0.0591431 0.0313087
internal_weight=2018.4 1016.73 689.294 1001.66 543.462 450.012 433.368 389.483 957.744 272.419 32.8274 239.591 327.441 230.095 52.1151 905.629 194.629 711 454.71 96.6689 256.29 125.855 57.2497 58.0222 93.4496 130.435 75.6241 54.8114 68.7489 226.506
internal_count=35000 25753 15353 9247 11330 8871 8312 7299 8317 4317 577 3740 10400 3556 630 7687 1403 6284 3738 927 2546 1338 775 422 2459 1208 640 568 543 3511
is_linear=0
shrinkage=0.05


Tree=7
num_leaves=31
num_cat=0
split_feature=108 75 37 80 18 108 80 47 37 108 18 73 16 100 17 97 73 81 39 19 72 72 81 19 108 37 108 17 37 33
split_gain=413.887 87.4898 85.977 55.2429 52.5003 34.4137 27.5325 27.8583 26.6159 68.9836 43.1882 61.8661 39.6489 28.3629 26.8109 32.9149 25.9058 24.1493 31.7936 23.9167 37.5663 23.2245 22.6803 20.7026 20.1024 19.2769 18.3172 23.1882 21.386 25.8768
threshold=0.46206554770469671 -0.074092008173465715 -3.0044300729059611e-05 0.35047762095928198 1.1791067719459536 0.30734302103519445 0.5387072265148164 -4.1596714690095836e-16 -3.0044300729059611e-05 0.6111552119255067 1.1507357954978945 -0.50841817259788502 2.853989958763123 -6.7227831550553665e-06 -0.82058399915695179 0.00012845069431932646 0.14853360503911975 -0.0060391651932150117 -9.4510378403356285e-05 0.81430247426033031 0.067527327686548247 -0.49784824252128596 -0.003186006448231637 1.5786284208297732 0.30463530123233801 1.0000000180025095e-35 0.30734302103519445 2.0888631343841557 -0.0027876134263351555 0.00039491582720074808
decision_type=2 2 2 2 2 2 2 2 2 2 2 2 2 2 2 2 2 2 2 2 2 2 2 2 2 2 2 2 2 2
left_child=1 5 4 8 6 -1 7 -3 10 12 13 -12 -10 19 22 -16 17 -13 -19 -2 -21 23 -15 -14 -6 -11 27 28 -9 -30
right_child=3 2 -4 -5 24 -7 -8 26 9 25 11 16 21 14 15 -17 -18 18 -20 20 -22 -23 -24 -25 -26 -27 -28 -29 29 -31
leaf_value=-0.060212369502808408 0.0088320687372232237 -0.030974102416400917 -0.04602809864140802 -0.031415633678541825 -0.059602070986493408 -0.027597561939457983 -0.060999167378725086 0.032381610237514236 -0.01924817416212311 0.075320655157262537 -0.05696373344997601 0.05552837513290635 0.066489720510899117 0.042665727940286204 0.0035105010179271355 -0.047072479232773218 0.067669460159618527 -0.045649361108199185 0.054112905845369645 -0.0022382677929238784 0.061033536025636319 0.0069671826748423015 -0.031911236129042023 -0.063063743654092549 -0.013417662999456107 0.032720821229154012 -0.0055360014351186534 -0.034094066619491763 0.02693723438707471 -0.028267697751451389
leaf_weight=158.33539890963584 116.22090315120295 44.697195969521999 147.01186379045248 43.01618599484209 47.958177108317614 165.33685337408679 15.681425970222334 166.91965735296253 53.247061099857092 103.38026364147663 14.600102951750157 35.925925044342875 46.678644336760044 48.475335937924683 103.2344514131546 46.713034400716424 93.22744857519865 19.043492982164025 13.754666527733205 34.021331890486181 75.566138656809926 40.442353848367929 12.909910240443422 3.3017756287008515 46.315008357865736 35.735463844612241 120.62514504243154 19.900453426409513 46.306102115660906 39.194486022461206
leaf_count=5786 1147 1021 4109 914 1427 4653 559 2371 838 447 245 296 274 416 1104 689 667 166 89 423 377 464 190 41 1043 356 2982 391 713 802
internal_value=2.01139e-10 -0.0220822 -0.0120777 0.023934 -0.00296308 -0.0435522 0.004097 0.0064295 0.0265899 0.0392815 0.0207417 0.0416131 0.0149808 0.0123122 -0.000852823 -0.0122476 0.0504999 0.0272087 -0.00381175 0.0246332 0.0413909 0.0351371 0.0269815 0.0579312 -0.0369124 0.0643778 0.0106841 0.0178689 0.0219655 0.00163064
internal_weight=1957.78 1018.28 694.61 939.494 547.598 323.672 453.324 437.643 896.478 282.786 613.693 176.552 143.67 437.141 211.333 149.947 161.952 68.7241 32.7982 225.808 109.587 90.4228 61.3852 49.9804 94.2732 139.116 392.946 272.321 252.42 85.5006
internal_count=35000 25857 15418 9143 11309 10439 8839 8280 8229 2420 5809 1463 1617 4346 2399 1793 1218 551 255 1947 800 779 606 315 2470 803 7259 4277 3886 1515
is_linear=0
shrinkage=0.05


Tree=8
num_leaves=31
num_cat=0
split_feature=108 75 37 80 18 108 20 18 32 47 72 18 73 17 100 80 47 19 72 39 17 4 108 13 12 108 97 80 13 27
split_gain=397.726 77.0308 72.5903 53.6706 46.2563 33.2633 26.2601 24.7201 23.8425 40.6986 37.3764 38.3494 32.5697 41.2819 24.1448 23.5607 22.6159 21.7555 21.0151 20.9164 20.698 20.3646 20.3491 19.9022 19.7113 19.1245 18.7974 17.943 17.4024 17.8629
threshold=0.46206554770469671 -0.074092008173465715 -1.0000000180025095e-35 0.3985541313886643 1.1791067719459536 0.30734302103519445 0.38778804242610937 1.1507357954978945 -0.0015887084300629792 -1.165656963509316e-16 -0.49784824252128596 -1.0000000180025095e-35 -0.20288670063018796 -0.54269465804100026 -6.7227831550553665e-06 0.5387072265148164 -3.3879793230866951e-16 0.8197150230407716 -0.36416424810886378 0.001276815833989531 0.061605885624885566 0.065525226294994368 0.30930399894714361 0.11119370162487031 0.013527989387512209 0.31120893359184271 0.00014460695820162075 0.35047762095928198 0.15779036283493045 -0.066833477467298494
decision_type=2 2 2 2 2 2 2 2 2 2 2 2 2 2 2 2 2 2 2 2 2 2 2 2 2 2 2 2 2 2
left_child=1 5 4 6 15 -1 8 21 9 12 20 -12 13 -2 17 16 -3 19 -19 -14 -10 23 -4 -8 -18 -6 28 -7 -23 -30
right_child=3 2 22 -5 25 27 7 -9 10 -11 11 -13 14 -15 -16 -17 24 18 -20 -21 -22 26 -24 -25 -26 -27 -28 -29 29 -31
leaf_value=-0.058888157080730787 0.035472642657512612 -0.016929835306997803 -0.060905001311276977 -0.03054268236415494 -0.057278541323859337 -0.019246858948670099 0.060167926333629863 0.046667789787893238 0.058260608226565973 -0.051673408563209955 -0.016541078819126521 0.036370688080543771 0.04283584022058598 -0.055772835178874727 0.014136749697398504 -0.059562356393850616 -0.064020821007216538 -0.044381592786143849 0.069470701621897155 -0.036390084443449426 -0.0077819706678587397 -0.010117897307142293 -0.022965744839921101 -0.08386201505433645 0.012501170794906594 -0.012346112343933194 -0.03045657929298843 -0.064691628618022551 0.0068453294038519951 0.058320558585750137
leaf_weight=151.20133748964872 24.437698675319552 94.938970187213272 79.001838536933064 42.410666295560077 49.378774192649871 138.35104974627029 3.0123953055590382 37.425385765731335 194.28993971459568 18.270294912159443 45.561338660307229 137.87220918014646 26.499108733143657 25.156237851129845 86.249419185332954 14.737723586848004 8.6295998468995077 4.2779792994260779 77.107292894273996 12.150976609438656 12.635203823447226 38.336091282078996 63.95513028698042 11.768914788030086 339.26530732255196 45.505368547514081 26.295458695851266 25.765345755498856 34.390894972719252 33.050695596728474
leaf_count=5786 250 1989 2409 912 1473 3895 31 375 1349 188 654 1400 196 457 870 562 160 65 360 127 208 445 1629 154 6199 997 411 758 362 329
internal_value=-4.21852e-11 -0.0214701 -0.0121754 0.0243498 -0.00395784 -0.0419691 0.0270926 0.0103921 0.0317239 0.0204225 0.039661 0.0232284 0.0255703 -0.0108111 0.0343169 0.00263046 0.00470027 0.048817 0.0634861 0.0179285 0.0542279 0.0011473 -0.043932 -0.0545091 0.010603 -0.0357295 0.00737623 -0.0263814 0.0167812 0.0320715
internal_weight=1901.93 1010.73 695.413 891.198 552.456 315.318 848.788 184.28 664.508 274.149 390.359 183.434 255.879 49.5939 206.285 457.572 442.834 120.035 81.3853 38.6501 206.925 146.854 142.957 14.7813 347.895 94.8841 132.073 164.116 105.778 67.4416
internal_count=35000 25857 15418 9143 11380 10439 8231 2107 6124 2513 3611 2054 2325 707 1618 8910 8348 748 425 323 1557 1732 4038 185 6359 2470 1547 4653 1136 691
is_linear=0
shrinkage=0.05


Tree=9
num_leaves=31
num_cat=0
split_feature=108 75 16 80 18 108 20 44 108 47 47 18 73 80 92 75 108 17 19 81 108 108 85 45 108 11 12 47 19 43
split_gain=342.633 77.2462 67.6939 46.7536 38.3422 33.2411 30.7718 26.0137 30.3981 38.3506 35.9041 21.4192 26.4699 19.694 17.4598 17.4286 17.1198 16.8877 23.2756 26.4494 28.6271 21.6318 26.3836 15.8003 15.6962 20.7711 21.6821 22.3683 20.5216 18.4042
threshold=0.46206554770469671 -0.074092008173465715 1.0000000180025095e-35 0.53476166725158703 1.1791067719459536 0.30734302103519445 -0.37740524113178248 -7.0553993282373981e-05 0.6156558394432069 -1.0000000180025095e-35 -1.0076826718684289e-16 1.1791067719459536 1.0000000180025095e-35 0.59295424818992626 0.0009583938226569445 -0.14708337932825086 0.30463530123233801 -0.48132555186748499 0.83701458573341381 1.0000000180025095e-35 0.2908718883991242 0.30734302103519445 -0.0080690733157098276 -4.331111540523124e-06 0.30734302103519445 0.03512136451900006 0.013527989387512209 -4.3577597851945563e-16 1.2875180840492251 -0.00059897114988416422
decision_type=2 2 2 2 2 2 2 2 2 2 2 2 2 2 2 2 2 2 2 2 2 2 2 2 2 2 2 2 2 2
left_child=1 5 -3 7 6 -1 17 11 10 -10 14 15 -13 24 -9 -2 -6 21 23 -20 -21 -4 -23 -19 25 28 -27 -28 -8 -29
right_child=3 2 4 -5 16 -7 13 8 9 -11 -12 12 -14 -15 -16 -17 -18 18 19 20 -22 22 -24 -25 -26 26 27 29 -30 -31
leaf_value=-0.058946414880210234 -0.0083113936711927631 -0.058539411732449059 -0.065373310581787566 -0.031636315895650725 -0.05648411493074007 -0.025607820515861236 -0.070646592152337748 0.035624199295080629 0.025436335192747614 0.071511971107983768 -0.00634251954588808 -0.021196273751717384 0.058032690696183366 -0.060316556401087365 -0.046892832175338683 0.018101849218756873 -0.014147206980520169 -0.063143518064899706 -0.054987574855521297 -0.065083141430859998 0.052053665631316616 0.02855852685059217 -0.055835524223709743 0.038519735188829604 -0.0063728086424541634 -0.080924097422777078 -0.063732960792751675 0.068453497553396261 0.041718988362039723 0.020727803125377846
leaf_weight=140.14381164836232 95.937641718541272 67.147864073514938 34.342261347919703 37.337661522673443 46.811691709794104 160.28180471231462 12.612103931605818 222.56862738565542 87.494265556335449 93.341016199439764 76.346688903868198 13.385269485414026 49.628973107784986 10.400638599065131 6.6005981592461458 178.94142566691153 48.739487152313814 4.3336721621453753 31.450575502589345 7.6581756146624711 16.355506217107177 20.079024014994502 17.188564502634108 32.362585553899407 108.82212353893556 5.1552955936640492 7.2328643016517153 22.515895959688351 5.9947162847965947 196.39276076469105
leaf_count=5786 1218 2203 1063 853 1484 4653 199 1950 995 447 1096 206 401 414 125 1852 1088 81 707 215 205 367 385 604 2698 104 169 322 94 3016
internal_value=3.42382e-11 -0.019972 -0.0108211 0.0230884 -0.00572255 -0.0411597 -0.000492932 0.0255674 0.0329713 0.049219 0.0233542 0.0149106 0.0412031 0.00751011 0.0332475 0.00888316 -0.0348886 -0.0185312 -0.00437812 -0.0248168 0.0146977 -0.036746 -0.0103657 0.0265137 0.00947663 0.0163784 0.0204669 0.0227783 -0.0344448 0.0256366
internal_weight=1857.6 996.021 695.596 861.582 628.448 300.426 532.897 824.245 486.351 180.835 305.516 337.893 63.0142 369.126 229.169 274.879 95.5512 163.77 92.1605 55.4643 24.0137 71.6098 37.2676 36.6963 358.726 249.904 231.297 226.142 18.6068 218.909
internal_count=35000 25857 15418 9143 13215 10439 10643 8290 4613 1442 3171 3677 607 7016 2075 3070 2572 3627 1812 1127 420 1815 752 685 6602 3904 3611 3507 293 3338
is_linear=0
shrinkage=0.05


Tree=10
num_leaves=31
num_cat=0
split_feature=108 75 16 80 20 108 80 20 18 18 32 72 18 72 17 19 73 37 17 74 37 4 13 108 47 17 35 42 13 27
split_gain=316.268 73.2443 60.118 40.8501 37.9549 31.4016 29.267 23.434 20.3179 19.2136 18.3533 37.9835 32.6217 31.5435 68.8351 34.751 21.6092 22.7146 19.824 18.9095 17.2284 16.2957 18.1352 16.282 23.5541 30.3531 21.0952 15.7969 18.2128 23.902
threshold=0.46206554770469671 -0.074092008173465715 1.0000000180025095e-35 0.43732608854770666 -0.37740524113178248 0.30734302103519445 0.50387182831764232 0.38778804242610937 1.1507357954978945 1.7646967172622683 -0.0015887084300629792 -0.49784824252128596 -1.0000000180025095e-35 -0.065234702080488191 -0.46744893491268152 0.8197150230407716 0.58056306838989269 -0.0071506404783576718 0.061605885624885566 0.081219185143709197 -0.0040710850153118363 0.065525226294994368 0.11119370162487031 0.26894676685333258 -2.7820070557117423e-16 -0.46744893491268152 -0.0012397627579048274 0.00040316236845683312 0.18516158312559131 -0.066833477467298494
decision_type=2 2 2 2 2 2 2 2 2 2 2 2 2 2 2 2 2 2 2 2 2 2 2 2 2 2 2 2 2 2
left_child=1 5 -3 7 23 -1 9 10 21 -6 13 18 -13 14 -2 20 17 -16 -12 -17 -15 22 -9 24 -4 -26 -27 28 -23 -30
right_child=3 2 4 -5 6 -7 -8 8 -10 -11 11 12 -14 15 16 19 -18 -19 -20 -21 -22 27 -24 -25 25 26 -28 -29 29 -31
leaf_value=-0.058511086885279395 0.038031967919835298 -0.055978398166431589 -0.068857571219877386 -0.028050043331613806 0.0089061377524506553 -0.025425438273281298 -0.059920154687069349 0.055087541850429501 0.042097810431643422 -0.031911534530293932 0.054927024616519576 -0.017658759337824487 0.031995240554989833 0.021316332907021576 0.021544152854490961 -0.0045758898397103278 0.014067283002528824 -0.069827429463364718 -0.010321462061931122 0.061727941979411186 -0.045676709429916404 -0.024473387180205829 -0.08457738086437426 -0.011797733642011466 -0.071980180042218886 0.081887113877241971 -0.013736189878623239 0.053017855637359716 -0.012545638778965371 0.048366808441409698
leaf_weight=133.04791944957105 62.156447717919946 65.8156952932477 39.233479378279299 38.487759136362001 365.45626145531423 155.57184571324615 17.760130687034689 3.0085690082050851 36.016756666824222 31.299678266979754 189.94362754002213 44.95725588593632 125.18378664180636 27.879638750571758 8.2768292203545553 12.415822191163896 15.851581811904905 38.166369097540155 12.401050047483293 80.306716219522059 14.634143490344284 47.643308558850549 10.219012535177169 114.48611639626324 14.736661247909067 8.6025355164892989 17.50175566971302 15.376934367232023 34.037895706482232 30.56861546356231
leaf_count=5786 535 2203 1361 880 6852 4653 716 31 376 831 1354 654 1406 243 127 146 173 725 210 405 173 646 154 2531 468 110 346 170 401 334
internal_value=4.67437e-11 -0.0195967 -0.0105815 0.0222784 -0.00567601 -0.0406773 0.00287514 0.0246726 0.0085848 0.00568607 0.0291737 0.0362871 0.0188749 0.0189704 0.000804962 0.0356872 -0.0363394 -0.0535437 0.0509282 0.0528497 -0.00174409 1.54452e-05 -0.0528111 -0.0238944 -0.0411897 -0.0146108 0.017776 0.00549053 -0.00102017 0.0162751
internal_weight=1811.04 963.512 674.892 847.532 609.077 288.62 414.516 809.044 176.871 396.756 632.173 372.486 170.141 259.688 124.451 135.236 62.2948 46.4432 202.345 92.7225 42.5138 140.854 13.2276 194.561 80.0744 40.841 26.1043 127.627 112.25 64.6065
internal_count=35000 25857 15418 9143 13215 10439 8399 8263 2112 7683 6151 3624 2060 2527 1560 967 1025 852 1564 551 416 1736 185 4816 2285 924 456 1551 1381 735
is_linear=0
shrinkage=0.05


Tree=11
num_leaves=31
num_cat=0
split_feature=108 75 37 80 18 108 20 32 72 72 17 19 75 17 18 73 17 108 108 30 74 20 108 17 46 22 17 73 3 21
split_gain=268.397 66.0385 55.1537 35.9554 34.3761 32.2091 20.4922 19.0346 31.7987 28.7823 40.2432 30.4999 22.5117 22.0363 26.8796 31.055 19.588 18.7952 18.7364 25.2905 18.2521 17.9028 19.1408 19.8859 20.5446 19.5458 17.6984 16.1804 15.8152 22.0868
threshold=0.46008226275444036 -0.074092008173465715 -1.0000000180025095e-35 0.53476166725158703 1.1791067719459536 0.30734302103519445 1.1939685940742495 -0.0017490896279923616 -0.48013676702976221 0.067527327686548247 -0.73363739252090443 2.2121276855468754 -0.11496544629335402 -1.0000000180025095e-35 0.74821630120277416 0.12193625792860986 -0.054761897772550576 0.30600291490554815 0.5995825231075288 -1.0000000180025095e-35 0.084563240408897414 -0.37740524113178248 0.30734302103519445 2.0506100654602055 3.7903246266068897e-05 0.55883634090423595 0.061605885624885566 0.57665738463401806 0.35383704304695135 -1.1520329117774961
decision_type=2 2 2 2 2 2 2 2 2 2 2 2 2 2 2 2 2 2 2 2 2 2 2 2 2 2 2 2 2 2
left_child=1 5 4 6 21 -1 7 9 26 10 -2 16 -12 14 20 -16 -11 -4 19 -15 -10 -3 23 24 28 -25 -9 -14 -23 -30
right_child=3 2 17 -5 -6 -7 -8 8 13 11 12 -13 27 18 15 -17 -18 -19 -20 -21 -22 22 -24 25 -26 -27 -28 -29 29 -31
leaf_value=-0.057647551928258656 0.035930460735715375 -0.013989185424108985 -0.056300287393471787 -0.027722813133409675 -0.031360830303368135 -0.023352259212938875 -0.0095247117324939404 0.048102315345570273 0.014967120503140394 -0.028373135523442297 -0.047376744951265759 0.060372375799483638 -0.017614427438578977 0.03808228830423812 -0.034057382325109277 0.064420060009672778 0.026576693555497546 -0.018489370135225485 0.054568651253960654 -0.02132739497386392 -0.043896288662322154 0.01878100586276028 -0.0098683286737460199 -0.068241777863308081 -0.040757360121348493 0.037274201093670141 -0.00070279893906341614 0.037724290760830052 -0.077237403918630029 0.069662557136130843
leaf_weight=124.75942709369701 50.90000296710059 114.61336267320439 70.481257964856923 36.650225298362784 86.766249046428129 151.71741330169607 45.833097214344889 217.65834025852382 20.750516709173098 21.782169501646422 40.60077233845368 54.708871806040406 39.35928759444505 46.890217094216496 11.8335491605103 24.748919473960996 63.488735197577626 61.583772881887853 51.026351260021329 28.987980086356401 36.045235067605972 170.33885073746205 95.99275320477318 12.717170136980714 12.672755493782459 6.7018445365829384 20.308788093272597 19.881125872023404 2.8015840714797369 29.521136111579835
leaf_count=5786 466 2613 2358 867 2459 4614 636 1676 312 268 731 322 573 421 162 278 441 1665 408 526 601 2609 2563 271 215 116 360 199 37 447
internal_value=-5.1914e-12 -0.0182942 -0.0097468 0.0206972 -0.0025689 -0.0388279 0.0229299 0.024916 0.0312649 0.0149086 -0.000251834 0.0312345 -0.0186979 0.0175752 -0.000860687 0.032565 0.0125399 -0.0386685 0.0311406 0.0153858 -0.0223903 0.00304043 0.0089417 0.0166333 0.0210034 -0.0318264 0.0439371 0.000957287 0.0248654 0.0569299
internal_weight=1772.12 940.668 664.191 831.454 532.126 276.477 794.804 748.971 458.25 290.721 150.741 139.98 99.8412 220.283 93.3782 36.5825 85.2709 132.065 126.905 75.8782 56.7958 445.359 330.746 234.753 215.334 19.419 237.967 59.2404 202.662 32.3227
internal_count=35000 25753 15353 9247 11330 10400 8380 7744 4744 3000 1969 1031 1503 2708 1353 440 709 4023 1355 947 913 8871 6258 3695 3308 387 2036 772 3093 484
is_linear=0
shrinkage=0.05


Tree=12
num_leaves=31
num_cat=0
split_feature=108 80 16 75 80 20 108 18 73 37 108 72 17 17 39 72 100 20 30 90 21 24 39 41 108 21 19 33 71 19
split_gain=247.882 61.0435 58.1451 38.0534 33.6273 27.7419 23.2714 19.242 51.8687 33.4308 38.9416 25.4479 31.8622 30.5751 23.1367 23.7351 22.2378 21.3221 20.1005 17.4711 17.2426 19.0681 17.1785 16.7736 16.7424 21.8792 15.9707 15.7306 15.6306 15.0468
threshold=0.46008226275444036 0.35047762095928198 1.0000000180025095e-35 -0.083599247038364397 0.3985541313886643 -0.37740524113178248 0.30734302103519445 1.1791067719459536 -0.50841817259788502 -0.0009098708105739205 0.6111552119255067 0.0041438187472522267 -0.54269465804100026 -0.087847687304019914 0.0011183326132595541 -0.49784824252128596 -3.7846788814022142e-07 -0.37740524113178248 -1.0000000180025095e-35 0.00013229985779616984 0.5819126069545747 -0.16982580721378324 -9.94992151390761e-05 0.0012290492886677387 0.26894676685333258 1.4652145504951479 1.5786284208297732 -0.00060492026386782516 0.66376009583473217 0.65644854307174694
decision_type=2 2 2 2 2 2 2 2 2 2 2 2 2 2 2 2 2 2 2 2 2 2 2 2 2 2 2 2 2 2
left_child=1 2 -1 6 7 24 -4 9 -9 11 14 12 17 -13 -11 -16 -14 19 -12 -2 21 -19 -6 -15 25 -5 -27 -23 -7 -17
right_child=4 -3 3 5 22 28 -8 8 -10 10 18 13 16 23 15 29 -18 20 -20 -21 -22 27 -24 -25 -26 26 -28 -29 -30 -31
leaf_value=-0.050508222485422076 0.061448263061482156 -0.05877047012093739 -0.050738335375452998 -0.048961041696487073 -0.071766277503683751 -0.085093752802908304 -0.014260815466848382 -0.055930494214457484 0.049178695503897182 -0.010398294544503793 0.024532852179861453 -0.021741004860145213 0.00014876970010025502 0.036107373034073187 0.053592423610625828 -0.027798622756938642 -0.044232514100903342 0.042110324635164245 0.067594932991288437 -0.062921463895622087 -0.06973796044108431 0.059269168044156523 -0.0018538318573506783 -0.065118854880839919 -0.006308909037928064 0.06682023440576447 -0.074767901975757112 -0.095328867664640271 0.0059597242491071997 0.032607508208576885
leaf_weight=94.736637562513351 31.569595171138644 82.032526244292967 72.759677191992523 61.371120045892894 12.833498788997529 4.771377643570303 109.56110117386561 12.930031361058353 127.22781633585691 55.891593094915152 40.749280570074916 31.341585527465213 60.90812457120046 133.01833327068016 50.047432700172067 20.647466197609901 52.599711250979453 18.458054321818054 80.899338085204363 3.101164247840642 7.9628450870513907 2.3197325654327869 27.863035265996587 4.2223333697766057 105.2471041274257 7.6100510619580728 2.6976375225931406 5.6604559142142561 387.10655937390402 20.589034726843238
leaf_count=3399 256 3143 3898 1941 353 97 3264 243 1202 945 480 487 902 1017 376 356 969 181 437 53 106 18 575 21 2306 93 86 74 7526 196
internal_value=6.19832e-11 -0.0175895 -0.0135957 -0.00894004 0.02038 -0.00256845 -0.0288181 0.0227507 0.039482 0.0189683 0.0322384 0.00880975 -0.00412392 0.0228173 0.0149371 0.0304495 -0.0204176 0.022652 0.0531702 0.0503239 -0.00523687 0.01419 -0.0239005 0.0329931 -0.0190022 -0.0376399 0.029765 -0.0503893 0.00485109 0.00236165
internal_weight=1728.73 927.894 845.861 751.125 800.84 568.804 182.321 760.144 140.158 619.986 268.824 351.162 182.58 168.582 147.176 91.2839 113.508 69.0718 121.649 34.6708 34.4011 26.4382 40.6965 137.241 176.926 71.6788 10.3077 7.98019 391.878 41.2365
internal_count=35000 25753 22610 19211 9247 12049 7162 8319 1445 6874 2790 4084 2559 1525 1873 928 1871 688 917 309 379 273 928 1038 4426 2120 179 92 7623 552
is_linear=0
shrinkage=0.05


Tree=13
num_leaves=31
num_cat=0
split_feature=108 80 16 75 80 20 108 42 72 19 18 72 17 23 19 108 5 53 108 47 17 45 100 0 20 30 19 18 75 73
split_gain=223.8 56.7531 52.2352 35.6961 29.6257 24.7743 22.0521 19.7973 22.6368 38.5294 36.2067 21.5547 22.6834 18.8178 17.9194 17.3799 16.9031 14.903 14.7292 24.4773 29.3778 21.7077 14.4873 13.6357 13.3648 13.2214 14.5415 13.1187 12.7854 12.6207
threshold=0.46008226275444036 0.35047762095928198 1.0000000180025095e-35 -0.083599247038364397 0.53476166725158703 -0.37740524113178248 0.30734302103519445 -0.00022183180408319456 -0.49784824252128596 2.1175496578216557 -0.061100311577320092 -0.076509281992912279 -0.62743952870368946 -0.11857943609356879 2.2121276855468754 0.30734302103519445 0.39486031234264379 1.0000000180025095e-35 0.30930399894714361 -2.7820070557117423e-16 -0.62743952870368946 -4.331111540523124e-06 6.966085038584425e-06 0.291884794831276 0.48320685327053076 -0.005834943149238824 2.3198518753051762 1.6356920599937441 -0.083599247038364397 0.25189699232578283
decision_type=2 2 2 2 2 2 2 2 2 2 2 2 2 2 2 2 2 2 2 2 2 2 2 2 2 2 2 2 2 2
left_child=1 2 15 6 7 18 -4 11 9 24 13 12 -2 22 17 -1 -15 -13 19 -5 -21 -22 -10 -23 -9 26 -6 -7 -14 -12
right_child=4 -3 3 5 25 27 -8 8 10 -11 29 14 28 16 -16 -17 -18 -19 -20 20 21 23 -24 -25 -26 -27 -28 -29 -30 -31
leaf_value=-0.067571325845027855 0.033946671993601886 -0.057626984394459513 -0.050221221633965064 -0.061427121228394277 -0.056255947838082555 0.0074842177798120843 -0.014085105137888746 0.04605078517158067 -0.061927670651650626 -0.057920048577932794 0.017086748699206202 0.015576358047815217 -0.04576353764825683 0.019523122636029351 0.054449216886167079 -0.024132427216521979 -0.07358791894247238 -0.089796864495545359 -0.0038550911096733825 -0.0660776865657767 -0.050896763548708306 0.070014415461495658 0.0082863722673998091 -0.017212518299501611 0.0091255928883661984 0.037390862271118874 0.035299245258042226 -0.023932645895752242 -0.0034178604452050274 0.043209116410236142
leaf_weight=51.748250883072615 23.647027535364032 77.736019968811888 68.870893956132932 40.06302260607481 23.649334929999899 355.94543132418767 109.0972514913301 215.84717353899032 22.73808547668159 10.075457178056238 98.492529459763318 85.519315708079375 32.439869331195951 44.091179300216027 33.274322471581399 41.487202432006598 5.4799969498999408 3.4924906627275041 88.130796258803457 14.502390824258326 7.8650840446352985 16.084354661870751 10.852969665080307 6.2103222124278536 27.643428323790431 6.9357902184128752 5.3108679205179206 36.649326927028596 39.566890113987029 87.151934787398204
leaf_count=1952 234 3143 3898 1548 701 6647 3264 1878 399 184 1127 827 654 549 219 1447 82 38 1786 522 178 278 173 114 338 115 51 976 658 1020
internal_value=2.89722e-11 -0.0167611 -0.0129642 -0.00853977 0.019745 -0.00239314 -0.0280692 0.0218959 0.0271772 0.037894 0.0170681 0.00923725 -0.00854184 -0.010349 0.0231443 -0.0482422 0.00922988 0.0114419 -0.0181658 -0.0330516 -0.00759816 0.0205218 -0.0392421 0.0457168 0.0418587 -0.0246159 -0.0394661 0.00455141 -0.0224951 0.0293501
internal_weight=1690.6 914.39 836.654 743.419 776.209 565.451 177.968 740.313 522.373 253.566 268.807 217.94 95.6538 83.1622 122.286 93.2355 49.5712 89.0118 172.856 84.7252 44.6622 30.1598 33.5911 22.2947 243.491 35.896 28.9602 392.595 72.0068 185.644
internal_count=35000 25753 22610 19211 9247 12049 7162 8380 5750 2400 3350 2630 1546 1203 1084 3399 631 865 4426 2640 1092 570 572 392 2216 867 752 7623 1312 2147
is_linear=0
shrinkage=0.05


Tree=14
num_leaves=31
num_cat=0
split_feature=108 80 16 75 80 20 108 18 73 37 108 30 39 72 72 21 17 17 39 108 3 17 20 26 13 24 33 30 90 101
split_gain=198.607 53.4138 47.9765 31.5908 27.8144 23.3371 21.4725 16.9803 40.6293 28.2741 32.2036 20.8203 19.9928 18.2782 15.9533 27.9616 24.5019 17.4315 17.3031 15.7739 15.3597 14.5966 14.1825 13.6749 19.6562 17.7013 13.9405 13.2105 12.7484 12.1618
threshold=0.46008226275444036 0.35047762095928198 1.0000000180025095e-35 -0.083599247038364397 0.3985541313886643 -0.37740524113178248 0.30734302103519445 1.1791067719459536 -0.50841817259788502 -0.0009098708105739205 0.6156558394432069 -1.0000000180025095e-35 0.0011183326132595541 -0.49784824252128596 0.0041438187472522267 0.69219297170639049 -0.087847687304019914 -0.82058399915695179 0.00083663727855309855 0.30734302103519445 0.31547231972217565 -1.6202778220176695 1.0000000180025095e-35 0.004120259080082179 0.32001791894435888 -0.37158240377902979 -0.00030829322349745775 -0.012930024415254591 0.00013229985779616984 -1.1335909221088512e-05
decision_type=2 2 2 2 2 2 2 2 2 2 2 2 2 2 2 2 2 2 2 2 2 2 2 2 2 2 2 2 2 2
left_child=1 2 19 6 7 -5 -4 9 -9 14 12 -12 -11 -14 15 17 -16 28 23 -1 27 29 -6 24 26 -25 -18 -19 -2 -15
right_child=4 -3 3 5 22 -7 -8 8 -10 10 11 -13 13 21 16 -17 18 20 -20 -21 -22 -23 -24 25 -26 -27 -28 -29 -30 -31
leaf_value=-0.066359260815361268 0.042515633175757905 -0.056938534809959952 -0.049520252287888845 -0.017841791343197317 0.0029136822554658819 0.0043279960038081948 -0.013181794358795108 -0.050268730695742628 0.046169279426940373 -0.0089856723110523212 0.019961503181164155 0.066238936494934869 0.05030764844687409 -0.064360041706174334 -0.02181076854664047 -0.039934696699777561 0.030279304429144845 0.017195818671176439 0.043612371923525996 -0.02392709922348947 -0.040936309262953212 0.031375017498951017 -0.058368124456921633 -0.041713180462907527 0.056921288896675394 0.053756764483207133 -0.062978109192999537 -0.04232440369784627 -0.052178802183808576 0.018713627550251893
leaf_weight=48.252035100013018 39.848658178700134 72.876030195911881 64.870207278931048 169.99922011699528 22.95913869375363 393.39554143906571 108.89512773739989 12.023042146116493 119.20724511053413 55.422093590721488 36.68679681327194 72.011581122875214 47.730340518988669 10.324436422437431 29.896461819298565 38.989595376886427 5.2953259879723253 56.277084427187219 77.352497486397624 40.107583124190569 21.806127232732251 22.6919637164101 16.035209438472521 6.2724341601133373 6.8310684803873292 21.489192796871066 16.474991353228688 11.173331485129891 3.9022955981781697 7.6850237790495148
leaf_count=1952 372 3143 3898 4426 498 7623 3264 243 1202 964 460 422 382 208 487 706 74 843 541 1447 346 245 430 45 58 162 158 225 67 109
internal_value=-7.83663e-11 -0.0159054 -0.0122831 -0.00810991 0.0188418 -0.00236153 -0.0267477 0.0210712 0.0373338 0.0174427 0.0300801 0.0506198 0.0145599 0.0293163 0.00793279 -0.00269947 0.0191099 0.00821561 0.0282591 -0.0470987 -0.00445722 0.00469994 -0.0222865 0.0071883 -0.0170758 0.0321864 -0.0402945 0.00733614 0.0340695 -0.0289107
internal_weight=1656.78 898.396 825.52 737.16 758.386 563.395 173.765 719.392 131.23 588.161 252.552 108.698 143.854 88.4318 335.609 171.997 163.612 133.007 133.716 88.3596 89.2565 40.7014 38.9943 56.363 28.6014 27.7616 21.7703 67.4504 43.751 18.0095
internal_count=35000 25753 22610 19211 9247 12049 7162 8319 1445 6874 2790 882 1908 944 4084 2559 1525 1853 1038 3399 1414 562 928 497 290 207 232 1068 439 317
is_linear=0
shrinkage=0.05


Tree=15
num_leaves=31
num_cat=0
split_feature=108 80 16 75 20 108 47 71 94 38 19 24 5 17 5 81 108 108 20 25 32 0 14 81 19 47 32 72 47 100
split_gain=179.159 49.216 46.2951 27.3987 21.803 21.0427 19.6096 18.512 16.6188 15.4866 16.4057 16.2114 20.8819 15.3443 15.3154 14.8324 14.1912 13.7865 17.2394 19.8127 19.4877 13.7793 13.602 12.9466 14.2319 12.2474 12.1546 21.7718 21.343 20.9423
threshold=0.46008226275444036 0.35047762095928198 1.0000000180025095e-35 -0.083599247038364397 0.38778804242610937 0.30734302103519445 -3.3879793230866951e-16 0.54596468806266796 0.0011735283187590542 0.00037976779276505118 1.9594165086746218 -0.2889502197504043 0.13416969031095508 -0.82058399915695179 0.36590082943439489 -0.0059254241641610852 0.30734302103519445 0.26405118405818945 -0.26053656637668604 -0.35061654448509211 -0.0044451686553657046 0.058157622814178474 0.16086830198764804 1.0000000180025095e-35 2.1175496578216557 -1.0000000180025095e-35 -0.0015887084300629792 -0.46149174869060511 -1.165656963509316e-16 -7.8831890277797339e-06
decision_type=2 2 2 2 2 2 2 2 2 2 2 2 2 2 2 2 2 2 2 2 2 2 2 2 2 2 2 2 2 2
left_child=1 2 16 5 8 -4 17 -6 26 11 -11 -9 -13 15 -14 -8 -1 18 -5 21 -21 -20 -16 24 -19 -10 28 -28 29 -2
right_child=4 -3 3 6 7 -7 13 9 25 10 -12 12 14 -15 22 -17 -18 23 19 20 -22 -23 -24 -25 -26 -27 27 -29 -30 -31
leaf_value=-0.065478301582949275 0.034006592619752578 -0.055935046890565436 -0.048559919090294834 -0.066465603988322644 -0.033898750785729272 -0.012016086599203731 -0.0014333013166794306 0.020920302034713262 -0.028727067473630831 0.036890697134648064 -0.052228528849822001 0.027669406090597516 -0.070381423604227417 0.0091571488960744529 -0.084522686483407397 -0.041834313184241641 -0.024562895000982292 -0.0022188385161160881 -0.074647732853960924 0.0946794561189713 -0.069831343542950189 0.049027989966197227 0.044061632529876653 0.021405599401632176 -0.055192485084313452 0.034661511397378969 0.043746420404678209 0.016993947868267054 -0.046615651518546054 0.002213444378055623
leaf_weight=45.943098971620202 118.42338760662824 68.230379505024757 61.725294179399498 26.6849867971614 28.929788437206298 108.87547832468408 84.634094547713175 34.954504131688736 25.477822205983102 56.350137492641807 5.6850454546511164 13.415453574620186 21.575570748536851 299.99151844694279 2.9493802022188884 31.053358349716291 39.338918400928378 39.668782970868051 2.7181102996692053 2.0477143255993715 14.890795372426512 13.137482588179408 6.7950689177960157 29.70373834297061 18.635138511192054 10.871784728020428 167.99255139240995 138.95875759189948 12.71140722336713 92.062422480201349
leaf_count=1952 1051 3143 3898 1080 499 3264 1934 445 592 736 71 189 368 5621 43 828 1447 931 58 32 346 220 81 553 446 131 1592 1991 197 1261
internal_value=-1.79926e-10 -0.0151352 -0.0117363 -0.00768375 0.0182175 -0.0252381 -0.00236599 0.00255041 0.0229372 0.00999063 0.0287236 -0.00459218 -0.0245266 0.00319156 -0.046884 -0.0122779 -0.0466048 -0.0180295 -0.0366246 -0.0123426 -0.0499435 0.0278264 0.00514265 -0.00546216 -0.0191503 -0.00976821 0.0251796 0.0316354 0.0163013 0.0201009
internal_weight=1624.43 887.279 819.049 733.766 737.153 170.601 563.166 170.655 566.498 141.725 62.0352 79.69 44.7355 415.679 31.32 115.687 85.282 147.487 59.4791 32.7941 16.9385 15.8556 9.74445 88.0077 58.3039 36.3496 530.149 306.951 223.197 210.486
internal_count=35000 25753 22610 19211 9247 7162 12049 2432 6815 1933 807 1126 681 8383 492 2762 3399 3666 1736 656 378 278 124 1930 1377 723 6092 3583 2509 2312
is_linear=0
shrinkage=0.05


Tree=16
num_leaves=31
num_cat=0
split_feature=108 80 16 75 80 108 47 44 108 47 47 71 17 81 107 108 11 17 32 3 13 13 11 8 75 76 17 92 108 77
split_gain=170.872 44.0107 41.7694 24.9069 23.1078 20.1013 19.6067 13.2438 18.202 30.9607 22.2381 13.1128 13.5384 15.2481 13.2575 14.1849 23.8149 15.2211 21.3342 27.6758 28.0745 14.1948 14.0525 13.27 13.0445 14.7687 13.0374 12.7687 12.6319 11.8734
threshold=0.46008226275444036 0.35047762095928198 1.0000000180025095e-35 -0.083599247038364397 0.53476166725158703 0.30734302103519445 -3.3879793230866951e-16 -7.2757884481688948e-05 0.6156558394432069 -1.0000000180025095e-35 -7.4636509979382125e-17 0.66376009583473217 -0.82058399915695179 -0.0059254241641610852 1.0000000180025095e-35 0.30734302103519445 0.037080138921737678 2.0506100654602055 -0.0015745331766083834 0.29033505916595465 0.38972671329975134 0.36148503422737127 0.25826172530651098 0.052503097802400596 -0.14708337932825086 -0.21423999220132825 -1.107294976711273 0.00095108346431516122 0.30734302103519445 -0.41325214505195612
decision_type=2 2 2 2 2 2 2 2 2 2 2 2 2 2 2 2 2 2 2 2 2 2 2 2 2 2 2 2 2 2
left_child=1 2 28 5 7 -4 -5 24 10 -10 27 -8 13 -13 15 16 23 18 21 20 -20 22 -18 -14 25 -2 -27 -9 -1 -24
right_child=4 -3 3 6 -6 -7 11 8 9 -11 -12 12 14 -15 -16 -17 17 -19 19 -21 -22 -23 29 -25 -26 26 -28 -29 -30 -31
leaf_value=-0.064563630302145014 0.025331377730850403 -0.054792290404190591 -0.048386386432704202 -0.019178637794190875 -0.022756442222782423 -0.012113796826415193 -0.083982382283018492 0.028938907564863003 0.017584727748337411 0.064040348410069864 -0.0090873563119368336 -0.0012880247589718346 0.082945614046943172 -0.045595899706776591 -0.064289063624017526 -0.0053122944902763061 0.07008263646648262 -0.02417972087265606 -0.020306942748327589 0.052718637008633121 0.089769662032187766 -0.034622171539485304 -0.034544230500244487 -0.072118717584240585 0.018918449786135487 0.023014974100816852 -0.030041925634755162 -0.020825403126727763 -0.024953710649775068 0.041203265630309641
leaf_weight=42.818447722122073 29.65049978310708 64.551687222032342 59.007736640487565 137.919790326152 33.505206390109379 108.28985514782835 4.3257744340226045 191.25944577879272 74.767687036655843 68.930649990215898 59.710221024230123 84.417303952388465 1.5981429032981385 25.21813766239211 6.0313123650848857 94.448249089997262 42.453854192513973 15.852090535685418 54.473512700758874 26.356621439103037 6.4816801361739627 5.1745481211692086 6.387582065537571 10.094191912561653 194.2617995114997 15.206395599059759 48.528467277996242 13.821405718568711 37.982761899009347 27.217212712857872
leaf_count=1952 431 3143 3898 3666 867 3264 98 1973 1011 447 1031 1933 29 794 34 2262 653 330 931 450 101 92 72 155 2176 217 834 260 1447 449
internal_value=2.964e-11 -0.0150846 -0.0118667 -0.00801972 0.0178024 -0.0249075 -0.0028683 0.0197545 0.0255417 0.039869 0.0177664 0.00261124 0.0035334 -0.0114796 0.0090834 0.0106066 0.018274 0.0226618 0.0270673 0.00990877 -0.00860193 0.0455098 0.0509615 -0.0509241 0.011536 -0.003821 -0.0173832 0.025585 -0.0459439 0.0268052
internal_weight=1590.74 861.1 796.549 715.748 729.642 167.298 548.45 696.137 408.489 143.698 264.791 410.53 406.204 109.635 296.569 290.538 196.089 184.397 168.545 87.3118 60.9552 81.2332 76.0586 11.6923 287.647 93.3854 63.7349 205.081 80.8012 33.6048
internal_count=35000 25753 22610 19211 9247 7162 12049 8380 4722 1458 3264 8383 8285 2727 5558 5524 3262 3078 2748 1482 1032 1266 1174 184 3658 1482 1051 2233 3399 521
is_linear=0
shrinkage=0.05


Tree=17
num_leaves=31
num_cat=0
split_feature=108 80 16 80 75 108 47 108 17 81 18 73 37 108 30 72 17 21 17 39 95 19 13 2 73 17 108 108 11 12
split_gain=158.565 40.5159 39.8935 22.0053 21.6773 19.1707 17.5039 14.0381 13.2493 13.8335 12.5966 34.8504 23.3177 24.7529 19.4984 18.7061 25.1624 19.911 16.0071 15.3626 16.1957 13.2769 12.7895 18.388 12.6965 12.3959 11.8087 11.2932 10.8742 10.8427
threshold=0.46008226275444036 0.35047762095928198 1.0000000180025095e-35 0.53476166725158703 -0.083599247038364397 0.30734302103519445 -4.1596714690095836e-16 0.30734302103519445 -0.82058399915695179 -0.0059254241641610852 1.1507357954978945 -0.50841817259788502 -0.0009098708105739205 0.6111552119255067 -1.0000000180025095e-35 0.061572758480906493 -0.087847687304019914 0.69219297170639049 -0.33847784996032709 0.0011183326132595541 -4.3290285248076536e-05 -0.46008464694023127 0.31444826722145086 0.23821504414081576 0.21676178276538852 -1.2717829346656797 0.30734302103519445 0.41151621937751776 0.037080138921737678 0.013527989387512209
decision_type=2 2 2 2 2 2 2 2 2 2 2 2 2 2 2 2 2 2 2 2 2 2 2 2 2 2 2 2 2 2
left_child=1 2 26 10 5 -4 7 -6 9 -8 12 -12 15 19 -15 17 -17 18 -2 -14 25 -18 23 -20 -13 -21 -1 28 -10 -30
right_child=3 -3 4 -5 6 -7 8 -9 27 -11 11 24 13 14 -16 16 21 -19 22 20 -22 -23 -24 -25 -26 -27 -28 -29 29 -31
leaf_value=-0.06403137209615474 0.025120716658695155 -0.053837773007141654 -0.047291007681469821 -0.022624204747950936 -0.048484112014387126 -0.011428733490975722 -0.0035530153963824977 -0.0049701799011375039 -0.029241701899613937 -0.041424917007221784 -0.046909774208671144 0.022729698685124131 -0.0080532539731324234 0.017783826776301203 0.063262806873707042 -0.024681173833636737 -0.012678690218531172 -0.034943396915965756 -0.052712663924148695 -0.037680753884671257 0.042143149070892595 0.036663786461376212 0.027129076734345045 0.0042661837557267795 0.05555827720325756 0.029446792341716724 -0.025145663152336101 -0.021622959251413942 -0.057077366150066304 0.013462088364000502
leaf_weight=41.083875010721385 57.323604751843959 61.66882747078489 56.568025652115466 33.019505022151861 34.9506566375494 109.20650524989469 103.99830971192569 39.462502412032336 17.001444990746677 31.39024348044768 12.359228997491298 52.136243016459048 50.630880117416382 37.405750907026231 63.706380572170019 25.536747676087543 15.736261974088846 40.21270056348294 25.840487456414849 13.971650369465353 56.468217177316546 102.00808210577816 17.718398237600923 31.323294921778142 67.693049441091716 13.544172183610497 37.203167209401727 32.393274878617376 5.5633013639599076 262.14024069695733
leaf_count=1952 621 3143 3898 867 1307 3264 2446 868 332 1021 263 631 947 482 439 436 153 716 467 261 524 814 258 549 672 147 1447 719 124 5232
internal_value=-9.87861e-11 -0.01484 -0.0117206 0.017242 -0.00789687 -0.0236662 -0.00293548 -0.025408 0.000760201 -0.0123337 0.0191676 0.03303 0.0158445 0.0277433 0.0464382 0.00695993 0.0203112 -0.00413508 0.00523581 0.0137011 0.026816 0.0300693 -0.00998644 -0.0214907 0.041275 -0.00463842 -0.0455523 0.0063508 0.00953361 0.0119962
internal_weight=1549.27 832.63 770.962 716.635 692.675 165.775 526.9 74.4132 452.487 135.389 683.615 132.189 551.427 235.727 101.112 315.7 143.281 172.418 132.206 134.615 83.984 117.744 74.8822 57.1638 119.829 27.5158 78.287 317.098 284.705 267.704
internal_count=35000 25753 22610 9247 19211 7162 12049 2175 9874 3467 8380 1566 6814 2800 921 4014 1403 2611 1895 1879 932 967 1274 1016 1303 408 3399 6407 5688 5356
is_linear=0
shrinkage=0.05


Tree=18
num_leaves=31
num_cat=0
split_feature=108 80 16 75 80 108 20 18 73 37 72 19 17 72 19 17 11 21 38 101 39 41 108 1 36 30 3 11 37 19
split_gain=139.378 38.0036 38.794 19.2647 19.2159 18.6699 16.1072 14.4724 28.8232 23.6741 22.6134 19.3909 15.9611 14.9547 18.8003 18.7068 14.0026 14.0485 13.7435 13.6408 12.8008 12.4718 13.6451 13.9337 13.7127 19.0061 24.6268 14.9258 12.6051 12.4629
threshold=0.46206554770469671 0.35047762095928198 1.0000000180025095e-35 -0.083599247038364397 0.3985541313886643 0.30734302103519445 0.38778804242610937 1.1507357954978945 -0.50841817259788502 -0.0009098708105739205 -0.49784824252128596 2.3346439599990849 -1.6202778220176695 0.067527327686548247 1.2875180840492251 -0.087847687304019914 0.03512136451900006 0.7188437581062318 0.00047870675916783517 -1.1335909221088512e-05 -9.94992151390761e-05 -0.00043471068784128869 0.30734302103519445 0.41046655178070074 -0.0012405417510308323 -0.018077471293509003 0.2118848189711571 0.28810185194015508 0.0012148312525823715 -0.46008464694023127
decision_type=2 2 2 2 2 2 2 2 2 2 2 2 2 2 2 2 2 2 2 2 2 2 2 2 2 2 2 2 2 2
left_child=1 2 -1 5 7 -4 -5 9 -9 13 11 -11 19 14 16 -15 -2 -18 21 -12 -6 -8 23 24 27 28 -27 -23 -26 -17
right_child=4 -3 3 6 20 -7 18 8 -10 10 12 -13 -14 15 -16 29 17 -19 -20 -21 -22 22 -24 -25 25 26 -28 -29 -30 -31
leaf_value=-0.044851090336646693 0.061982625544191088 -0.052448896223109054 -0.046171211496464443 -0.0095517046624111687 -0.065784356950044504 -0.010320540446715713 -0.049041554181772737 -0.041734677918388828 0.041518962329032766 0.044519152680868521 -0.056958737924635128 -0.088917384385441611 0.021104537481485844 -0.022362553798451798 -0.035719284196792038 -0.016700045305438834 0.007932647395593094 -0.036695350498078504 -0.008901676700246202 0.017017305637787437 3.4468913680595391e-05 0.058982553263784022 -0.0044198545461994936 -0.041326016200827431 0.065422735874460056 -0.061735561611424884 0.059197624853649516 -0.048633456479094631 -0.071349681635540022 0.032637554564303166
leaf_weight=75.842207446694374 9.8587487172335369 59.354482936876593 54.039785437576938 316.72733798553236 10.427550372667609 110.71843187042396 6.5846050493419161 11.451805507764218 112.78754395805299 121.15045649418607 14.278198854997756 2.7852187827229491 76.649493919685483 23.80543254641816 36.926176622044295 14.673898047767578 99.324404417769983 21.44087375770323 73.682872687932104 11.057481450960038 25.335183769348077 5.149581739678978 36.079951945692301 6.0443361653015009 51.361393845640123 8.2486600652337092 8.5976256141439062 8.6076132794842106 1.7416956685483445 100.2223196849227
leaf_count=3409 115 3159 3898 7893 348 3291 157 254 1269 1142 290 54 1128 415 682 145 1399 397 1432 153 564 86 1058 96 935 121 123 155 44 788
internal_value=5.65623e-12 -0.0139102 -0.0109139 -0.00717054 0.0165349 -0.0220794 -0.00247231 0.0184794 0.033845 0.0148922 0.0271706 0.0415204 0.00973232 0.0058345 -0.00421832 0.0179782 0.0046867 9.31642e-06 0.00840714 -0.0246727 -0.0191567 0.0180387 0.0215489 0.0319884 0.0372823 0.0462571 -1.64218e-05 -0.00835072 0.0609368 0.0263364
internal_weight=1514.96 822.781 763.426 687.584 692.175 164.758 522.826 656.412 124.239 532.173 225.921 123.936 101.985 306.252 167.55 138.702 130.624 120.765 206.098 25.3357 35.7627 132.415 125.831 89.7509 83.7066 69.9494 16.8463 13.7572 53.1031 114.896
internal_count=35000 25857 22698 19289 9143 7189 12100 8231 1523 6708 2767 1196 1571 3941 2593 1348 1911 1796 4207 443 912 2775 2618 1560 1464 1223 244 241 979 933
is_linear=0
shrinkage=0.05


Tree=19
num_leaves=31
num_cat=0
split_feature=108 80 16 71 20 108 21 80 19 108 18 73 37 108 30 39 77 72 19 72 21 17 17 43 81 19 4 19 22 19
split_gain=118.672 35.9338 35.4637 17.8161 17.8004 20.5266 19.9979 16.4766 16.4093 12.8647 12.7753 26.0902 20.5093 22.2309 19.8712 13.9649 16.2007 13.6977 11.4505 11.1783 17.3006 17.029 14.281 11.1026 12.1991 11.0814 10.5797 12.8097 12.4224 10.9929
threshold=0.46206554770469671 0.35047762095928198 1.0000000180025095e-35 0.6193852722644807 -0.37740524113178248 0.30734302103519445 1.4652145504951479 0.53476166725158703 1.5786284208297732 0.30734302103519445 1.1791067719459536 0.18247441947460177 -0.0009098708105739205 0.6111552119255067 -1.0000000180025095e-35 0.0011183326132595541 -0.62116920948028553 -0.61875799298286427 2.0642547607421879 0.03348872251808644 0.69219297170639049 -0.087847687304019914 -0.33847784996032709 -0.00054606323828920711 -0.0036354516632854934 0.91216933727264415 0.21630166471004489 -0.44173142313957209 -0.58505856990814198 2.4844132661819462
decision_type=2 2 2 2 2 2 2 2 2 2 2 2 2 2 2 2 2 2 2 2 2 2 2 2 2 2 2 2 2 2
left_child=1 2 9 -4 5 6 -5 10 -8 -1 12 17 19 15 -15 -14 -17 18 -12 20 22 -21 23 -2 -25 -19 27 -23 -28 -30
right_child=7 -3 3 4 -6 -7 8 -9 -10 -11 11 -13 13 14 -16 16 -18 25 -20 21 -22 26 -24 24 -26 -27 28 -29 29 -31
leaf_value=-0.063515875692307697 -0.043772822300672393 -0.051553263032843258 -0.030248746226791724 -0.042190797699785121 0.0024233113507354928 -0.0018399895470242048 0.06814978163707712 -0.019818717943319082 -0.064432687893908019 -0.021501811520031271 0.051372189626290789 0.053624662148817392 -0.0094146398531704829 0.014717433914912356 0.062125458229840884 -0.054832576429516611 0.031241058847299941 -0.038652399176087371 -0.069936258761621115 -0.020574688173631315 -0.034117598985247598 -0.017465642316335708 -0.0099104617661777885 0.042933029849149096 -0.020210584072950687 0.021764765237871284 0.041050592986875578 0.047172923060256611 -0.017763853080270925 0.062712066578310188
leaf_weight=37.625641810707748 5.4599974378943434 55.98611687621451 70.732682602421846 79.840354009764269 401.50984451081604 118.56491372175515 7.9188049587537517 31.566282295738347 3.3089733691886067 35.326965536922216 17.88362678792328 63.843376931734383 47.845850063487887 35.757885670289397 57.884117402136326 5.9083235627040258 73.155774847604334 19.079233797267083 2.1826951261609784 26.743850400438532 35.890009145019576 8.95234562223777 69.54134493554011 41.386456541717052 9.3833417750429344 12.602683973498641 19.379553244449198 53.290158748626709 34.482871868647635 4.8389246501028529
leaf_count=1952 66 3159 2897 3366 10093 2635 158 853 140 1457 255 649 936 482 439 111 807 334 37 471 711 88 1250 393 156 184 134 426 333 28
internal_value=-2.98664e-12 -0.0129037 -0.010037 -0.00649212 -0.00374257 -0.0155521 -0.0334043 0.0154529 0.029076 -0.0431708 0.0171778 0.0322384 0.0138925 0.0255422 0.0440224 0.0119064 0.0248089 0.00585349 0.038177 0.00558669 -0.00349784 0.0155307 0.00523981 0.0239767 0.0312627 -0.0146192 0.0235146 0.037876 0.0082869 -0.00786052
internal_weight=1487.87 810.814 754.828 681.876 611.143 209.633 91.0681 677.059 11.2278 72.9526 645.492 115.592 529.901 220.552 93.642 126.91 79.0641 51.7482 20.0663 309.349 161.661 147.688 125.771 56.2298 50.7698 31.6819 120.944 62.2425 58.7013 39.3218
internal_count=35000 25857 22698 19289 16392 6299 3664 9143 298 3409 8290 1459 6831 2775 921 1854 918 810 292 4056 2576 1480 1865 615 549 518 1009 514 495 361
is_linear=0
shrinkage=0.05


Tree=20
num_leaves=31
num_cat=0
split_feature=108 80 16 71 20 108 21 44 75 19 108 47 76 108 47 17 17 80 92 4 18 108 108 11 24 25 7 43 37 20
split_gain=105.817 33.5319 34.4647 17.5264 17.2805 17.9184 17.9537 15.5964 14.6359 14.0928 14.0731 29.3035 12.0499 11.6911 11.4282 10.6262 9.92119 10.1091 9.55321 9.04781 11.4514 16.1786 15.184 13.7839 16.5881 14.9419 13.8249 15.8091 15.6518 25.3665
threshold=0.46008226275444036 0.35047762095928198 1.0000000180025095e-35 0.6193852722644807 -0.37740524113178248 0.27350728213787084 1.2629494071006777 -7.2757884481688948e-05 -0.12489450722932814 1.4866117835044863 0.6156558394432069 -1.0000000180025095e-35 -0.21423999220132825 0.30734302103519445 -7.4636509979382125e-17 0.44315131008625036 -0.54269465804100026 -0.092078655958175645 0.00095108346431516122 0.36287698149681097 1.3759427666664126 0.30734302103519445 0.30734302103519445 0.03512136451900006 -0.62173765897750843 -0.31603717803955073 0.40459410846233373 -0.00019046182569582013 -0.0009098708105739205 0.7252827286720277
decision_type=2 2 2 2 2 2 2 2 2 2 2 2 2 2 2 2 2 2 2 2 2 2 2 2 2 2 2 2 2 2
left_child=1 2 13 -4 5 6 -5 8 12 -8 14 -12 -2 -1 18 -16 -14 -18 -9 20 22 -22 23 25 -25 -6 28 -28 -26 -30
right_child=7 -3 3 4 19 -7 9 10 -10 -11 11 -13 16 -15 15 -17 17 -19 -20 -21 21 -23 -24 24 26 -27 27 -29 29 -31
leaf_value=-0.063025122863301322 0.013125597292717422 -0.05083658713807903 -0.030493243220040774 -0.046014185933694496 0.028368640127252955 -0.0042827471356552196 0.054697206537856903 0.023212746868419724 0.014726124741145381 -0.069267070041748952 0.013416920160586904 0.061550345676026186 0.0054186229577565942 -0.022088004536244973 1.9186014369497727e-05 -0.093113714778025825 -0.01088335786544729 -0.058254692310520176 -0.018981817237281588 -0.017858881234554213 -0.047643613351773979 0.011442416701687915 -0.0064946671955969822 -0.054998076417759278 0.034170680134628276 -0.073265023175143815 -0.074627526806921668 0.030614965067637737 -0.048150097634007162 0.05559162446476873
leaf_weight=35.688144946470857 39.764977856888436 52.747398331499426 66.393149243260268 61.109512255410664 6.3431190812843843 132.76245533395559 8.5799250751733762 184.16044934425736 174.53934638097417 3.1287123365327707 71.170957912690938 56.9004873521626 22.689911942929029 34.109787825495005 53.369558745995164 3.2492016088217488 22.011858529411256 23.061100169550627 14.468460482545195 47.528163704526378 22.923985819332302 23.422905287705362 105.30845358030638 6.9790844525559796 139.95521830732469 8.4124976079910976 7.3612552369013429 6.925341969355939 15.521188077051194 9.4983706038910878
leaf_count=1952 552 3143 2882 2747 123 3229 166 2163 2204 132 1099 469 398 1447 1056 45 351 592 318 1231 781 566 3091 188 2946 207 162 99 488 173
internal_value=-1.65606e-11 -0.0123167 -0.00957819 -0.00610557 -0.00343261 -0.015215 -0.0351468 0.0147103 0.00578655 0.0215722 0.0212769 0.034802 -0.00872419 -0.0430194 0.0144907 -0.00532547 -0.0215462 -0.0351204 0.0201392 0.00262025 0.00538031 -0.0177826 0.00888508 0.016943 0.0206286 -0.0295749 0.0235729 -0.0236119 0.0276591 -0.00876582
internal_weight=1460.08 794.699 741.951 672.153 605.76 205.581 72.8181 665.386 282.067 11.7086 383.319 128.071 107.528 69.7979 255.248 56.6188 67.7629 45.073 198.629 400.18 352.651 46.3469 306.305 200.996 186.24 14.7556 179.261 14.2866 164.975 25.0196
internal_count=35000 25753 22610 19211 16329 6274 3045 9247 4097 298 5150 1568 1893 3399 3582 1101 1341 943 2481 10055 8824 1347 7477 4386 4056 330 3868 261 3607 661
is_linear=0
shrinkage=0.05


Tree=21
num_leaves=31
num_cat=0
split_feature=108 80 16 80 75 108 47 18 73 37 72 19 17 108 37 19 72 17 17 20 2 72 73 19 3 108 108 81 4 10
split_gain=99.4674 30.7637 31.9896 16.0326 15.8508 15.6618 14.1136 13.0129 23.6145 18.2464 20.2668 16.5738 15.4347 12.5765 11.2598 13.6864 11.2577 17.6701 13.3712 16.1268 15.4336 13.7179 12.6173 12.6444 11.4365 10.9371 10.7428 10.3052 10.1764 10.146
threshold=0.46008226275444036 0.35047762095928198 1.0000000180025095e-35 0.35047762095928198 -0.083599247038364397 0.30734302103519445 -4.1596714690095836e-16 1.1507357954978945 -0.14487957954406736 -0.0009098708105739205 -0.49784824252128596 2.3346439599990849 -1.0000000180025095e-35 0.30734302103519445 -1.0000000180025095e-35 1.8628505468368532 0.03348872251808644 -0.087847687304019914 -0.54269465804100026 -0.37740524113178248 0.1803340092301369 -0.49784824252128596 0.37431433796882635 1.2336158156394961 0.080306515097618117 0.30734302103519445 0.5995825231075288 1.0000000180025095e-35 0.22173009067773822 0.36077059805393225
decision_type=2 2 2 2 2 2 2 2 2 2 2 2 2 2 2 2 2 2 2 2 2 2 2 2 2 2 2 2 2 2
left_child=1 2 25 7 5 -4 13 9 -9 16 11 -11 -12 -6 15 -5 18 -18 19 21 -21 -2 23 -20 -22 -1 -14 -15 -19 -30
right_child=3 -3 4 14 6 -7 -8 8 -10 10 12 -13 26 27 -16 -17 17 28 22 20 24 -23 -24 -25 -26 -27 -28 -29 29 -31
leaf_value=-0.062543190748065358 0.059409648641685797 -0.049961164383063292 -0.043339284581196881 -0.052146470579321036 -0.04586871366893893 -0.0091750277881060792 0.0015161771556463561 -0.022062792834120437 0.04100158235460033 0.041331645491477109 -0.016758312321026699 -0.086524430906120733 0.0061706036007743697 -0.02256599788573091 0.036093476100402727 0.031371852138880822 -0.022071827907432118 0.037769469498871083 -0.014400361875535837 0.026513651073119555 0.024976350534842005 -0.024631282720986299 0.01108194356330033 -0.062755475575150529 -0.070848100235140779 -0.022076049124858877 0.05075631700868051 0.030712633994915525 0.014079897611845761 -0.067326706532551364
leaf_weight=33.66514091566205 22.418751586228613 50.243469676817767 49.624959541426506 21.472804429358806 31.834930826444179 103.53260961445631 433.22548861731775 17.51316319219768 97.395443511195481 110.49851006828249 39.613473831675947 2.5941577088087788 33.833850101567805 25.594786842586473 7.4632542338222256 6.3576672060880801 26.129092397168279 59.718407862121239 48.190926958108321 14.277544299140574 4.2551633697003117 6.1980733741074792 29.933127057272941 18.790679353289306 11.607810466783119 33.12688994128257 22.491660861298442 14.062553507275878 50.520986686926335 4.1412478610873213
leaf_count=1952 200 3143 3898 690 1307 3264 9874 384 1151 1151 705 55 617 617 155 85 458 516 913 145 50 101 476 475 175 1447 261 251 441 43
internal_value=-1.85205e-10 -0.0121262 -0.009503 0.0143371 -0.00615569 -0.0202447 -0.00188037 0.0162027 0.03139 0.0127484 0.0240592 0.0383988 0.00715574 -0.0224626 -0.0184425 -0.0330673 0.00476573 0.0150262 -0.00449539 0.0143243 -0.0111996 0.0412074 -0.0159054 -0.0279657 -0.0451437 -0.0424727 0.0239744 -0.00367331 0.0235009 0.00791248
internal_weight=1430.33 774.911 724.667 655.416 657.875 153.158 504.718 620.122 114.909 505.213 209.032 113.093 95.939 71.4923 35.2937 27.8305 296.182 140.51 155.672 58.7573 30.1405 28.6168 96.9147 66.9816 15.863 66.792 56.3255 39.6573 114.381 54.6622
internal_count=35000 25753 22610 9247 19211 7162 12049 8317 1535 6782 2789 1206 1583 2175 930 775 3993 1458 2535 671 370 301 1864 1388 225 3399 878 868 1000 484
is_linear=0
shrinkage=0.05


Tree=22
num_leaves=31
num_cat=0
split_feature=108 80 16 71 20 108 47 17 45 47 108 94 18 73 19 39 8 15 2 38 19 18 22 21 108 39 77 26 2 94
split_gain=88.4837 28.4417 29.9539 14.2538 14.3506 15.6988 18.5805 25.536 18.8759 13.624 32.3895 15.8894 17.4527 16.5785 16.1098 15.7743 16.4076 15.7603 13.0866 17.1401 12.8706 13.4198 12.7979 10.917 10.3388 9.78934 13.8315 9.76441 8.90188 8.70136
threshold=0.46206554770469671 0.35047762095928198 1.0000000180025095e-35 0.56628343462944042 -0.37740524113178248 0.30734302103519445 -2.7820070557117423e-16 -0.62743952870368946 -4.331111540523124e-06 -1.2861014090141823e-17 0.6111552119255067 0.001013555331155658 1.1507357954978945 0.18247441947460177 1.2376805543899538 0.00083663727855309855 0.076755184680223479 0.33142992854118353 0.30875928699970251 -0.00025110303249675775 0.83701458573341381 0.58052268624305736 -0.66251742839813221 -0.63419541716575611 0.30734302103519445 0.001597954716999084 -0.042755415663123124 -0.61966985464096058 0.025379969738423828 0.0011735283187590542
decision_type=2 2 2 2 2 2 2 2 2 2 2 2 2 2 2 2 2 2 2 2 2 2 2 2 2 2 2 2 2 2
left_child=1 2 24 -4 5 6 -5 -8 -9 11 -11 12 15 -14 25 16 23 18 27 -20 21 -10 -19 -2 -1 -13 -27 -18 -29 -7
right_child=9 -3 3 4 -6 29 7 8 20 10 -12 14 13 -15 -16 -17 17 22 19 -21 -22 -23 -24 -25 -26 26 -28 28 -30 -31
leaf_value=-0.06205293441923232 0.034571110210496282 -0.048627871405490505 -0.028823449325638247 -0.055600837674624572 0.0021480448392861033 0.0012164733200460917 -0.060104901541088655 -0.048786873960959619 0.075651038803036391 0.0012522960819133545 0.054435693176225299 -0.018723244142256606 0.0087730494701763386 0.048733860061294619 -0.059427210909852729 0.015917290638766061 -0.065205868390444524 0.057336344824531496 0.03595604168719007 -0.055208080127902383 -0.076469500612232844 -0.036136794587959424 -0.059979732634836039 -0.066965354369708019 -0.021778532036440021 -0.051261770419518154 0.040544660505011119 -0.057166374987599557 0.034217127956970766 -0.050703357577110364
leaf_weight=31.430337405763566 3.1913526831194785 48.064067082159454 60.726928770338418 39.714453874272294 395.41705428341811 110.69428055919707 15.473548201844094 7.4322847579605904 15.779118314269004 54.087289641145617 60.819314694497734 31.118852373678237 45.436830865219235 60.532389571890235 14.088663079310207 229.49195267359028 2.8855518195778123 2.7629110962152508 8.2160919881425816 13.842716283164917 2.0080744996666899 3.2351578297093502 14.656456190743482 15.528163922019301 32.322316910140216 5.0898676062934127 21.152315170504153 2.8170965581666669 49.337537770159543 8.7043195329606515
leaf_count=1952 40 3159 2748 2182 10178 2438 757 240 340 1124 579 710 789 672 390 2850 52 29 98 223 59 122 215 235 1457 134 322 61 620 225
internal_value=3.88413e-11 -0.0113836 -0.0089074 -0.00574227 -0.00340017 -0.0142051 -0.0308162 -0.008409 0.0197031 0.0138204 0.0294019 0.0103783 0.0138656 0.0315997 -0.0115214 0.00838233 -0.0068883 0.00158175 0.0112865 -0.0212528 0.0439172 0.0566311 -0.0413721 -0.0496551 -0.041634 0.000244974 0.0227381 0.0243275 0.0292811 -0.00256855
internal_weight=1406.06 771.002 722.938 659.185 598.458 203.041 83.6426 43.9282 28.4546 635.055 114.907 520.149 448.699 105.969 71.4497 342.73 113.238 94.5184 77.099 22.0588 21.0224 19.0143 17.4194 18.7195 63.7527 57.361 26.2422 55.0402 52.1546 119.399
internal_count=35000 25857 22698 19289 16541 6363 3700 1518 761 9143 1703 7440 5884 1461 1556 4423 1573 1298 1054 321 521 462 244 275 3409 1166 456 733 681 2663
is_linear=0
shrinkage=0.05


Tree=23
num_leaves=31
num_cat=0
split_feature=108 80 16 71 42 100 20 108 47 17 45 20 25 4 72 19 18 77 17 73 19 17 74 73 36 26 108 50 7 32
split_gain=80.3109 26.0075 28.3039 14.4311 13.9486 13.9095 12.3862 13.5358 14.3593 20.2533 15.7212 12.2905 11.689 14.2081 10.4335 26.7877 19.0763 11.5549 14.5744 10.4438 17.6802 10.4299 10.3759 10.1132 10.383 9.9306 9.8246 9.18387 8.9118 9.0654
threshold=0.46386487782001501 0.35047762095928198 1.0000000180025095e-35 0.6193852722644807 -0.00022183180408319456 -2.8537249818327833e-05 -0.57279962301254261 0.30734302103519445 -2.7820070557117423e-16 -0.62743952870368946 -2.4871025061656833e-06 0.76027661561965953 -0.023056975565850731 0.27623252570629125 -0.46149174869060511 2.1175496578216557 -0.067223280668258653 0.03514493070542813 -0.06969274207949637 0.17148629575967791 -0.11238272488117217 0.10734743997454645 -0.666083663702011 -0.39178681373596186 -0.00042244810902047897 0.0075786341913044461 0.30734302103519445 1.0000000180025095e-35 0.032294383272528655 -0.0013084076344966886
decision_type=2 2 2 2 2 2 2 2 2 2 2 2 2 2 2 2 2 2 2 2 2 2 2 2 2 2 2 2 2 2
left_child=1 2 26 -4 5 25 7 8 -5 -10 -11 14 27 -14 15 21 17 18 22 20 -18 -6 -16 -19 -25 -2 -1 -13 -7 -30
right_child=4 -3 3 6 11 28 -8 -9 9 10 -12 12 13 -15 16 -17 19 23 -20 -21 -22 -23 -24 24 -26 -27 -28 -29 29 -31
leaf_value=-0.06165975424597539 -0.0026496139138129952 -0.047130584332991499 -0.028230339195259947 -0.054958675414753355 0.037761620093367407 -0.055285312431408953 0.0014647827311850905 -0.003164877789441114 -0.058436322209571651 -0.066611192781661874 0.046649891410389117 0.037477168304414735 -0.085969640461187991 0.015044407504333741 0.05792890190691985 -0.058006729189762962 -0.039462373236119952 0.059598950086091777 0.015097887735916669 0.037248756659662728 0.022706093472688853 -0.0053803164676885168 -0.058949865054642336 0.025256648615433953 -0.051094913566111871 0.045058981221310454 -0.021612133518959468 -0.036811106972355262 -0.0089514613972223062 0.022583704210976576
leaf_weight=29.62764866836369 17.987626523710787 46.312148925106158 62.835312286799308 33.850107133737765 158.46931968815625 8.4177302960306388 428.15159100777237 101.20277187484317 12.171119172126057 3.8282959107309606 15.343068576010408 13.622189696878197 8.4891180949052778 5.900768866762518 2.0710227005183723 8.2981609813868982 14.341311832424251 8.9438018063083309 13.614616799866779 71.035257578827441 56.458787222392857 15.36810106737539 22.844042698852718 11.196318652015181 7.3928008414804927 27.710879060905427 31.700193293392658 5.9895508202025658 107.68000566563569 28.907668788102455
leaf_count=1952 229 3174 2923 1974 1866 166 11023 2271 641 145 391 186 145 99 29 180 275 117 161 1005 897 300 511 151 140 247 1466 111 1809 416
internal_value=1.12027e-10 -0.0108134 -0.00847323 -0.00544258 0.013457 0.00222615 -0.00303423 -0.0146106 -0.0323786 -0.00799204 0.024033 0.0185079 -0.0103229 -0.0445475 0.0210212 0.0297582 0.0133669 -0.00882558 -0.0265024 0.0237035 0.0101132 0.0339477 -0.0492345 0.0159114 -0.00510799 0.0262802 -0.0409592 0.0147891 -0.00535448 -0.0022773
internal_weight=1379.76 765.022 718.71 657.382 614.739 190.704 594.547 166.395 65.1926 31.3425 19.1714 424.035 34.0016 14.3899 390.034 182.136 207.898 66.0626 38.5297 141.835 70.8001 173.837 24.9151 27.5329 18.5891 45.6985 61.3278 19.6117 145.005 136.588
internal_count=35000 25960 22786 19368 9040 2867 16445 5422 3151 1177 536 6173 541 244 5632 2346 3286 1109 701 2177 1172 2166 540 408 291 476 3418 297 2391 2225
is_linear=0
shrinkage=0.05


Tree=24
num_leaves=31
num_cat=0
split_feature=108 80 16 71 44 108 47 20 108 47 17 0 19 75 76 32 1 47 108 17 92 30 80 21 13 32 47 26 30 26
split_gain=71.433 24.6972 26.39 12.5167 12.0796 11.4192 27.2267 11.2906 12.6124 17.671 22.1426 17.7997 14.5765 11.2632 11.2769 11.2304 10.3286 10.2851 9.06581 8.36 8.02081 7.78905 7.62495 7.61173 8.88613 8.45165 7.7992 11.3338 10.8081 13.4967
threshold=0.46206554770469671 0.35047762095928198 1.0000000180025095e-35 0.56628343462944042 -7.338522118516265e-05 0.6156558394432069 -1.0000000180025095e-35 -0.37740524113178248 0.30734302103519445 -2.7820070557117423e-16 -0.62743952870368946 0.291884794831276 0.83701458573341381 -0.12489450722932814 -0.21423999220132825 -0.0032402062788605686 0.027752729132771495 -7.4636509979382125e-17 0.30734302103519445 -0.5494471788406371 0.00095108346431516122 0.047816180158406503 -0.092078655958175645 -0.92889356613159169 0.37269987165927893 -0.00038106540159787977 -4.1596714690095836e-16 0.75729987025260936 -0.018077471293509003 0.0032301503233611588
decision_type=2 2 2 2 2 2 2 2 2 2 2 2 2 2 2 2 2 2 2 2 2 2 2 2 2 2 2 2 2 2
left_child=1 2 18 -4 13 17 -7 8 9 -5 -11 12 16 14 -2 -13 -12 20 -1 -16 -6 23 -21 -15 26 -26 -25 28 29 -28
right_child=4 -3 3 7 5 6 -8 -9 -10 10 11 15 -14 21 19 -17 -18 -19 -20 22 -22 -23 -24 24 25 -27 27 -29 -30 -31
leaf_value=-0.061230482575004921 0.012691656581647802 -0.046877288953273866 -0.027695436464246544 -0.054025240019718174 0.020845898994242565 0.011032880449338207 0.060252339190282868 0.0017926457687037376 -0.0024838468364725506 -0.057955494853354585 -0.076283859873363336 0.068538241953033194 -0.032941142650887142 0.037247639054949537 0.0046213995674886143 -0.069302129830698 0.081823702344728272 -0.007673277888636411 -0.021543143727009273 -0.013329093697328315 -0.019030399474921623 -0.073581545511720511 -0.055917916422157612 0.035767312524142218 0.055227031038724755 -0.060714462203743672 -0.024166632088262127 -0.078219842896072034 0.032191473069698828 0.022640305048411236
leaf_weight=27.552074677310884 38.752046958659776 43.587137811118737 56.468677133962046 36.232325834454969 170.30791231436888 67.09970765793696 48.338035758584738 395.9200393386418 116.49673894455191 13.914972756989298 1.1171153262257636 1.8797125734854487 4.4876079463865599 29.249284475576133 20.397312230896205 6.9090043818578106 13.708528707269577 50.039686410687864 30.119874339550734 21.254028448369354 13.618791839107869 2.566148225683718 20.789469069684856 16.344009179621935 14.917385078035297 1.7569515994982783 43.879143338650465 4.5962378256954244 22.616642866050825 23.729826387483627
leaf_count=1952 544 3159 2748 2182 2132 1104 469 10178 2663 757 32 48 150 357 383 232 299 1096 1457 347 319 47 589 180 175 28 701 72 264 336
internal_value=1.56232e-11 -0.0103528 -0.00809398 -0.0052057 0.0126963 0.0187744 0.0316429 -0.00305564 -0.0129122 -0.0284379 -0.00637333 0.0191681 0.0460118 0.00455465 -0.00849575 -0.0398211 0.0699103 0.0124252 -0.0405033 -0.0216451 0.0178933 0.0128262 -0.0343882 0.0142378 0.00897321 0.0430104 0.00386779 -0.00163058 0.002271 -0.00773804
internal_weight=1358.65 748.394 704.807 647.135 610.253 349.404 115.438 590.666 194.746 78.2493 42.0169 28.102 19.3133 260.848 101.193 8.78872 14.8256 233.966 57.6719 62.4408 183.927 159.656 42.0435 157.089 127.84 16.6743 111.166 94.8219 90.2256 67.609
internal_count=35000 25857 22698 19289 9143 5120 1573 16541 6363 3700 1518 761 481 4023 1863 280 331 3547 3409 1319 2451 2160 936 2113 1756 203 1553 1373 1301 1037
is_linear=0
shrinkage=0.05


Tree=25
num_leaves=31
num_cat=0
split_feature=108 16 80 75 47 108 92 18 73 39 48 46 13 46 42 108 108 25 26 94 108 30 2 6 36 81 17 7 17 81
split_gain=65.3052 22.9316 25.0084 12.3137 11.5062 27.8448 14.4937 12.5863 16.4308 11.734 12.5078 14.7505 17.9939 14.524 11.4751 9.81286 9.27699 9.21424 9.84469 8.99522 8.83804 17.4774 10.718 12.5307 10.7107 10.2787 10.023 8.88705 8.52191 13.6703
threshold=0.46206554770469671 1.0000000180025095e-35 0.35047762095928198 -0.14708337932825086 -1.2861014090141823e-17 0.6111552119255067 0.0006805929879192264 1.0492980480194094 0.18247441947460177 0.0004925975954392926 -2.1551163832620588e-16 -0.00011202894165762699 0.2736863791942597 3.7903246266068897e-05 0.00013688009494217115 0.30734302103519445 0.30734302103519445 -0.30046582221984858 0.004120259080082179 -0.000577824655920267 0.25595963001251226 -0.023504299111664292 0.32426506280899053 0.048264805227518089 -0.00055963185150176276 -0.0061207015533000222 -0.48132555186748499 0.44009579718112951 2.0888631343841557 1.0000000180025095e-35
decision_type=2 2 2 2 2 2 2 2 2 2 2 2 2 2 2 2 2 2 2 2 2 2 2 2 2 2 2 2 2 2
left_child=1 16 3 15 6 -6 7 9 -9 10 -2 -12 13 17 28 -3 -1 18 -13 -11 21 22 27 -24 -25 -22 -27 -16 -5 -30
right_child=4 2 -4 14 5 -7 -8 8 -10 19 11 12 -14 -15 20 -17 -18 -19 -20 -21 25 -23 23 24 -26 26 -28 -29 29 -31
leaf_value=-0.060905326686452647 -0.071062374511660267 -0.040601007445165524 -0.046711217456162121 0.0068655498384542664 0.00041629465435384313 0.052171671020979617 -0.011289373682168268 0.0052649692538109917 0.044013674383094697 -0.012770627333036478 0.047317745080583493 -0.069823789758216653 0.023655321666309938 0.034985623201608355 -0.057144946862421567 -0.0098325369619493633 -0.021069606916899616 -0.064419550173249573 0.064879692038267212 0.016636042622489178 0.0087680187809286488 0.024219471968786675 0.087487455967365818 0.025712366788806743 -0.066006827679678429 -0.042324271331376874 0.0065690448216442392 0.11480340380041923 -0.038361852922905067 0.016750373352558742
leaf_weight=27.825183999724686 7.5010610753670326 37.626920425420394 38.146984041450196 293.21490647090832 49.936402095016092 54.189443494426087 74.328899260726757 48.571191178169101 62.640540268272161 29.748023256775923 11.969939646311103 2.3676156662404528 20.13345552055398 5.9994532042182973 36.929137223400176 83.24032742343843 30.784640290774405 23.153995007509369 3.1757540969410911 206.68877019465435 68.351010367507115 13.670216585363958 2.9917485886253408 5.6400611610151818 7.3064928026869884 25.657576476223767 17.721630279673263 0.76706112455576558 27.882308277534321 18.864398798439652
leaf_count=2090 118 3330 2916 6879 1124 579 1440 910 728 481 158 54 285 73 1340 2793 1562 392 49 2752 1685 389 57 169 259 799 453 14 722 400
internal_value=8.2928e-11 -0.0099764 -0.00738263 -0.00503796 0.0122398 0.027351 0.00906927 0.0126556 0.0270904 0.00748941 -0.00984288 -0.00296848 -0.0139464 -0.0357655 -0.00169068 -0.019411 -0.0399817 -0.0505567 0.0073468 0.0129362 -0.0119357 -0.0262491 -0.0391123 -0.00473818 -0.0260501 -0.00331353 -0.02235 -0.0536461 0.00370468 -0.0161216
internal_weight=1337.03 736.621 678.011 639.864 600.405 104.126 496.279 421.95 111.212 310.738 74.3013 66.8002 54.8303 34.6968 518.997 120.867 58.6098 28.6974 5.54337 236.437 179.035 67.3047 53.6345 15.9383 12.9466 111.73 43.3792 37.6962 339.962 46.7467
internal_count=35000 25857 22205 19289 9143 1703 7440 6000 1638 4362 1129 1011 853 568 13166 6123 3652 495 103 3233 5165 2228 1839 485 428 2937 1252 1354 8001 1122
is_linear=0
shrinkage=0.05


Tree=26
num_leaves=31
num_cat=0
split_feature=108 16 80 75 80 39 18 73 37 72 100 19 45 17 101 3 42 108 108 17 81 108 71 18 108 6 30 28 13 10
split_gain=64.3773 21.1519 22.9644 12.2723 12.2237 11.2338 9.98364 18.428 12.0026 15.4827 13.023 13.6019 12.925 12.0322 10.8032 10.4005 9.82864 8.71568 8.66422 8.40947 13.3528 12.667 8.37882 7.95064 15.4681 13.0073 14.9258 12.5108 11.9578 17.8535
threshold=0.46206554770469671 1.0000000180025095e-35 0.35047762095928198 -0.14708337932825086 0.35047762095928198 -9.94992151390761e-05 1.3283538818359377 0.14853360503911975 -0.0009098708105739205 -0.49784824252128596 -2.8537249818327833e-05 -0.045865835621953004 -1.3635834875458384e-05 -1.6202778220176695 -1.1335909221088512e-05 0.1945426017045975 0.00013688009494217115 0.30734302103519445 0.30734302103519445 2.0888631343841557 1.0000000180025095e-35 0.28370584547519689 0.66376009583473217 0.75460496544837963 0.30734302103519445 0.0086209643632173556 -0.018077471293509003 0.032442389056086547 0.37358610332012182 0.18684818595647815
decision_type=2 2 2 2 2 2 2 2 2 2 2 2 2 2 2 2 2 2 2 2 2 2 2 2 2 2 2 2 2 2
left_child=1 18 3 17 6 -6 8 -8 10 12 11 -2 15 14 -11 -10 19 -3 -1 22 -21 -22 -5 24 25 -24 28 -28 -27 -30
right_child=4 2 -4 16 5 -7 7 -9 9 13 -12 -13 -14 -15 -16 -17 -18 -19 -20 20 21 -23 23 -25 -26 26 27 -29 29 -31
leaf_value=-0.060563176964558645 -0.01850796516487202 -0.040170478506804073 -0.046015577365730163 -0.046927275525608492 -0.063425235070194458 0.0007999366287404112 0.001989082119363419 0.048790591922707155 -0.076107680307303804 -0.053948206655866943 -0.00089932040194139889 0.037745642427821968 0.041835782082193199 0.017081252385508214 0.01413667595210717 0.018972487380181882 -0.011702757889072594 -0.010764877426197264 -0.021135848419759767 -0.041339654272603527 -0.042912839682770015 0.043888782792105993 -0.075388468532533837 -0.0085466589132234365 -0.0062252355518828649 0.040190590030978093 -0.016938784777652798 0.05411982629555237 -0.075323037421832509 0.039401299852537673
leaf_weight=26.187105678021908 13.87303874857025 36.410314290988026 36.69240789860487 7.2665743248071513 9.3786148037761432 24.845865977404173 35.706482226029038 51.181087682023644 4.215311285108327 13.540427375584843 224.35180858202511 47.669737086398527 84.790422542020679 63.18832691386342 10.226676447317002 9.0536057874560338 170.65262147865724 81.835960131546017 29.779306540265679 24.996466123964638 6.3575556993018862 12.40198284643702 3.3920663436874738 61.082875478634378 77.695638459757902 90.207135894015664 31.08655651146546 7.7357362598995669 5.9290438974276167 7.9226295687258244
leaf_count=2090 197 3330 2916 312 350 564 707 600 43 292 3515 424 1045 1131 156 119 5165 2793 1562 722 188 212 77 1636 2033 1843 571 143 128 136
